{"inputs":26,"layers":[{"Normalize":[{"mean":0.3684210526315789,"variance":0.4823763889427199},{"mean":95.71947368421054,"variance":62.662487097119566},{"mean":4.052631578947368,"variance":0.6862318321265946},{"mean":5.473684210526316,"variance":1.2718995761678495},{"mean":4.526315789473684,"variance":0.4993069989739547},{"mean":729,"variance":2091.6142594958364},{"mean":23.306481994459833,"variance":54.22682258945746},{"mean":1.6842105263157894,"variance":1.172160918490531},{"mean":2.0526315789473686,"variance":1.986101290959285},{"mean":190.31578947368422,"variance":178.53498923816437},{"mean":76.76228786251343,"variance":11.38870090905766},{"mean":-4.2915789473684205,"variance":1.363456378619753},{"mean":-5.449473684210526,"variance":1.194189765772551},{"mean":64.11315789473683,"variance":6.810373706904845},{"mean":79.70157894736842,"variance":8.010658861895323},{"mean":0.012226315789473684,"variance":0.01882509081840854},{"mean":76.25473684210526,"variance":33.69268847257065},{"mean":7.277368421052631,"variance":10.357335484474284},{"mean":0.3206647368421052,"variance":0.7710903652168103},{"mean":4.669557175080526,"variance":11.770396580769368},{"mean":95.00977756176152,"variance":12.470435257704647},{"mean":-9.257894736842108,"variance":2.4906806910379222},{"mean":94.80736842105264,"variance":13.420458005403251},{"mean":50.473684210526315,"variance":7.85639813717143},{"mean":92.03894736842105,"variance":13.917628312300023},{"mean":209.94736842105263,"variance":130.13291734716978}]},{"Dense":[{"bias":0.3436411995566883,"weights":[0.5592646824606828,-0.23006255033096373,0.9005507465951358,0.4141750027716851,-0.8804060259217978,0.39958864738346467,-0.35161862378221836,0.42843326465649606,-0.6099894706833385,-0.41412340044370327,0.15774199154855478,0.49826608517537296,0.0791900180754473,-0.8921173109161842,-0.5800237361773362,0.39545368411034976,0.10722089508887007,0.43493801916213,0.6684852179133122,0.46468999952366513,-0.4275458959065516,0.010253792651107955,-0.43267523361694665,-0.31966849200914055,-0.599913065432735,-0.919340794794547]},{"bias":-0.8229744407277213,"weights":[0.4145599182826089,-0.9977661440882047,-0.3292367395568388,-0.5672837398438199,0.7753490494723234,-0.2681225792473522,0.3507327755502746,-0.5577845229240296,-0.4241300892698481,0.001462917661253863,0.9813250856649608,-0.6623293934361308,0.6163393153654817,0.62578179412633,-0.2079482921608983,0.34985647348536386,-0.41347585473494963,-0.7959322938783221,-0.17822114003699843,0.1767898949255482,0.22560254739406266,-0.8707815608084836,-0.2697223128191616,0.9650523068754361,0.660024438657128,0.09971193902254182]},{"bias":-0.17111467535446317,"weights":[0.002675344547852493,0.4148311570475265,0.00588003869256701,0.6402344098920437,0.6434589445076241,-0.1999263468825556,-0.20416552879698244,0.739723336812715,-0.4985143203427643,-1.009892545236926,-0.404392166178778,0.7427964740242606,-0.8773926671369615,0.7406812531527797,-0.4208298364133228,-0.6563108532400923,-0.2894489018805963,0.8786792223096658,-0.9155658472421284,0.22073520118445233,0.10139880453451044,-0.05497400180729366,0.1782811234864611,-0.6347751976419768,0.5443450504464891,0.13382780154478033]},{"bias":0.2943796131297046,"weights":[-0.0004987199050961092,0.008448242674870399,-0.3315796926447478,-0.35040257418898363,0.4639193643277006,0.26613988293286267,-0.7413191141805715,0.02519871789841847,0.04435109353796959,-0.048943959443170454,-0.8805780164730171,0.10821906007525793,0.28657661936380446,0.30661668176846246,-0.10052565636112472,-0.11520030497139912,0.3387650103472641,-0.48052172645827557,0.522253170021204,-0.5644836852934448,0.9428784702845325,0.5650569385892708,0.3543351123975312,0.21438439764020215,-0.4789173122240358,0.6145478995063793]},{"bias":-0.8191814585957026,"weights":[-0.7196234548552775,-0.7817338225464467,0.861099714630386,-0.8675700532481864,-0.037292169004622525,-0.07192231825295542,0.12900246390588935,-0.6344578279573113,0.5042617791890612,0.7326830622894426,0.6225972193611876,-0.6506511957252652,-0.5794531356702006,0.9066494252829663,0.3256057282767088,0.04576275806343905,0.45472826418956863,-0.28167432871393705,-0.16997364517391841,-0.7040980352448889,-0.31691157126803987,0.9875513547569462,-0.09941305981597169,-0.5843139058574418,0.9314370102585364,0.8353230002097329]},{"bias":-0.23597441231795566,"weights":[0.6185094653641965,0.37641337033128464,-0.6299720726714495,0.3602506134365958,-0.5247051147459693,0.5616510527262751,-0.8111268980386764,-0.9834417933830492,-0.4978564117524403,-0.3962405196153433,-0.5894548722916865,-0.9177393672416561,0.17432822443061538,-0.08187909239291567,0.9355784433770968,-0.065330320848966,0.6984123681342033,-0.39371868124204884,0.3307974972683044,0.4373058733689821,0.3885246092866913,0.13765328344731764,-0.6153145374133113,0.585837215861602,0.2652399922346327,0.6338829434603138]},{"bias":-0.5370461633778565,"weights":[0.29243067205472345,-0.6052163622744324,0.5982462096366471,-0.27608737065475264,0.2077065049140245,-0.5162860030873583,0.9727377175594129,-0.7449360608652228,-0.8446448016648197,0.34009394227305834,-0.5674151080890749,0.7220768671653023,0.7666652706885622,-0.38492042196485854,-0.6136796945989497,0.8841591414115806,-0.2628674701650693,0.9341933000320842,-0.5648724647333718,0.8891449158637561,-0.4623546267637165,0.5955662716100517,0.5026155741311298,0.6099472822758708,-0.6637441097656318,-0.9805077182948199]},{"bias":0.047731286661732174,"weights":[0.3593309355254797,-0.3620027080435792,-0.6938108253073808,0.5411850494476415,-0.29457635477945004,0.5407923489741945,-0.5551814066088409,-0.7202159248170109,0.14501133248165993,-0.5489411908210389,0.16345269651754182,-0.40365415872140425,-0.39918242712558927,-0.2371739006798923,0.1911611187559203,-0.7754700610735494,0.36627790670778865,0.4863651414093862,-0.06744515843377866,0.8220623622028591,-0.77685235925988,-0.29057990760027474,0.17761058000449229,-0.6538835567405697,0.81512774347754,-0.5551392727997667]},{"bias":0.09863208450233048,"weights":[-0.7236809075622276,-0.5214622474173074,0.9819627027569063,0.13063009683494034,0.10657458452607156,0.5447067125098501,0.8835939024445699,1.029060603911308,0.6912255515845471,0.22749486061794233,0.5707375355426446,-0.6744022352671295,-0.2895425137313135,0.3954370267367925,-0.7685967301447904,0.1534758896189042,-0.07153804995973298,0.8609359067057288,0.7047680416258955,0.45074608893064566,0.8541142621542691,-0.05915436784789587,0.950201033002647,0.6150617234338508,0.8423625711511525,0.17650557983921744]},{"bias":0.13357901756306215,"weights":[0.27927624490931047,0.5858642575008657,0.3070863371282894,0.3391677352464569,0.5257194929685062,-0.31685431991614654,-0.933085591618706,0.8219851911593876,0.3143888564768067,0.8468754391198198,0.601906842484699,-0.5682528266175969,-0.4333836106314358,0.2802068805018645,-0.07053552390928897,-0.381546886169336,-0.34276793221998353,0.8385340654279306,0.7844882259573897,0.2827962922075674,0.6470787358885048,-0.138566861670162,-0.903145433109273,0.027267135143313838,-0.11703312213528835,0.8668849823780636]},{"bias":-0.5020940675460249,"weights":[0.3143505395570063,-0.32430809962754553,0.17895070497260473,0.6682709769336015,-0.3484850197077768,-0.47575904222658993,-0.4741888010954551,-0.7267803613525791,0.02642075358869601,-0.9221391151744053,-0.2779177328826948,0.06009476643967732,0.6027042170658427,0.3723675460106367,0.3212499779046358,0.8803679893139917,0.6496351734572589,0.2894516468252724,-0.6464315182756556,-0.3739083499624445,0.013852216398204064,0.6333782589045661,-0.09715048157035748,0.26450045562934965,0.8624837995294643,-0.4647820642558613]},{"bias":0.21626902022398145,"weights":[-0.325731306104952,-0.3941638626027833,-0.37546780586009415,-0.057332690311194895,-0.6553680698261674,-0.35864041443202094,-0.07160370273078709,0.35850957696623675,0.02192568673940262,0.07579116289630927,-0.2301675231051535,-0.9847854266168969,0.8745268033463736,-0.6891819993464554,0.5848699115395906,-0.47500201798130304,-0.28636338585990606,-0.6563692015056763,-0.8043766922532758,0.1342684610253556,0.524541622139668,-0.2367996865836754,-0.7672092048179739,-0.3441994803751811,-0.8702411552408639,0.7089315611855488]},{"bias":0.04476240509179934,"weights":[-0.6350217612656571,0.13325635412802944,0.9713854653673935,-0.46078638914041636,-0.6735849250168042,0.37298054481122395,0.5902890701615046,0.5109286909146215,0.3501798454853337,0.5930095520960965,-0.9860084718069925,-0.875401753793985,-0.5299813459782103,-0.9836996578123274,-0.5392594509657075,0.41495984290192134,-0.2351853098375531,-0.8741590602120225,0.0931018635467641,-0.10164432505000606,-0.6228760299872879,-0.9704146399552425,0.6091524072575789,0.5042168286439996,0.9610448643182685,-0.1177291086836378]},{"bias":-0.32621513722021345,"weights":[-0.5137783559876677,-0.2226279934926333,-0.6169253653267599,0.15172158593688173,0.4252099680842126,0.575995833473861,0.9174972198783549,-0.2764918063960533,0.9181126150092465,0.2647904646589968,-0.8591575654935839,0.6693750882146642,-0.005543878794221567,-0.22652387597383314,0.8205311594568658,-0.8801961236306253,0.047886156784792674,0.522260559914518,0.5019871859016586,0.12900391650877796,-0.9911331238567785,-0.34746767540635987,0.1101435533150634,0.4018025832127278,-0.9181577559784961,-0.6168032073395109]},{"bias":0.3570037397068579,"weights":[-0.38807108331548246,-0.8105712324226646,-0.5072378277670757,0.418287597050325,0.0940669665105352,-0.4959328205701302,-0.06535269734907737,-0.3269748490954187,0.78627289505627,0.32640412583536565,0.5199182406419522,-0.6445254077134859,-0.6748667105285353,-0.24210499720284884,0.0215961128698279,0.5483319781664603,0.426606039324117,-0.18529767895282112,-0.43111731940178305,0.6063771712772359,-0.07588421024537148,0.34054858064844573,-0.38334158971635324,0.4493852320330689,0.8355017126212149,-0.9578169249720827]},{"bias":0.6670500675361974,"weights":[0.6911510836127341,0.6908683064722123,0.5655296925115576,0.9494432478525074,-0.8591656825820815,0.609767905144591,0.5387853888900177,0.11404881139565742,-0.7102046326703447,-0.8454384292088665,0.06691220078585361,0.647706564141285,0.4087684863594337,0.10387374358375176,0.6046229287206512,0.6871449881301036,-0.3715932037949235,0.6567801309347514,0.6706162535358597,-0.40629470544685725,0.833490782316479,0.5286110751732225,0.6742339231269363,-0.8454110933577343,0.4767423995557615,0.4117095849642609]},{"bias":-0.20190065299998147,"weights":[0.9585965160544513,0.2617491789790496,-0.9277872640992749,-0.08907184499195185,0.9112044607048485,-0.4041614814031103,-0.053097075406386335,0.45175188726123383,0.8467969949379107,0.8417401864936649,0.6526265526303595,0.0008605039705434802,-0.5563169544971847,-0.512341815342876,-0.37199760939748566,0.12112366004506736,-0.40578024081399744,0.034762953535728454,0.2051877292728802,-0.17335721344918542,-0.8488943753130999,-0.48693324018684214,-0.11286771692510883,0.3579751722688633,-0.6342242601592846,0.6675621024035109]},{"bias":0.9472153291237392,"weights":[0.1190914559102892,-0.3471606835527326,0.5534481094421364,-0.5393132402543096,-0.012466628588125537,-0.7063609563874426,-0.025846139805410444,-0.9074917374527869,-0.18746502327820655,0.8149615696410588,-0.7498839887600443,0.6797007076911453,0.3734432835631479,-0.6276686643723973,-0.49845079731831615,-0.5531740737391504,0.6190352647697148,0.2898628153975256,0.7877527041724938,-0.4467476318236509,0.41207279797376484,-0.17067981869572402,-0.176542469641641,-0.07734906607296985,-0.6217636417945839,0.7572476860997018]},{"bias":-0.38658343606916395,"weights":[-0.7655279878693337,0.6014675656753773,0.16475177423657497,-0.4847872058060029,0.8159317244876739,0.05192488851469837,0.8863274015908157,0.012405936250613335,0.5686630148621056,0.7104377269140327,0.07116149643616203,-0.7329290062176651,-0.20320738672631924,0.5469218991051572,-0.9818779684358367,0.31951328123047085,0.4717443569584062,-0.25525107216544574,-0.9132529087830745,-0.9846351869751547,0.19362078183121353,0.06197220317935994,0.7986374837757719,-0.3936087805201512,-0.0096881127299597,0.47831519575823]},{"bias":-0.6106720632819502,"weights":[0.4772223193132091,-0.5328471538578122,0.2810306058031983,0.6231252598057894,-0.1603331877995515,0.02959110992969443,-0.4511520569465779,0.40754566105019074,0.3801215832937541,-0.1168173637327593,0.9366027515356501,0.503938616454354,0.4276778585993931,0.7121600853346384,0.6261281808614266,0.5904382638657792,0.7815085927348412,0.05738978440821426,-0.7965796649090047,0.9460142457140956,-0.5536645662006789,-0.38022205992063013,-0.6775057985560438,0.8709771270003885,-0.8128803836027182,0.6236726367878399]},{"bias":0.1251196507659052,"weights":[0.7079974639971759,0.8605290893754367,0.04594808453687508,0.8971034129157744,-0.4828651970911519,0.22851949297072507,0.6993896584399361,0.04811626548386319,0.8099048792528851,0.136250914327962,-0.21719624999199064,0.8305125054976735,0.4878016547514535,0.6311753993109614,-0.30515018489766277,0.02508399763425947,-0.052102181486762766,0.321451523274681,0.20962883889412756,-0.34900226618927865,-0.9001947795719508,0.3692220192661008,-0.12288098958450125,-0.5107232474672042,-0.33159777050107364,-0.2542839684343488]},{"bias":-0.11381841753066706,"weights":[-0.5195628633122733,-0.22430288057692127,-0.7523456302106725,0.3853630085618174,-0.9205374206155328,-0.5496153191353053,-0.3172116871161634,0.24034727082211502,-0.8598900182475001,0.1449266667634529,0.07884395424594438,-0.831496402302842,0.7915864948937947,0.9657510260164657,0.29570818250692316,-0.0011923482902209237,0.7021291915113775,0.13310415718175744,-0.13122610332894707,-0.4161746873350421,0.181993327417939,-0.33185481549617546,-0.9236690303673694,-0.015929676475818572,0.98352213916236,-0.601945559880596]},{"bias":0.06422888036323329,"weights":[-0.9336074580961005,-0.579650555719817,-0.4345697507560982,0.8803228529214833,-0.8582732659607878,0.5862222182747971,-0.7838095514274155,0.18031147627536748,0.5629924042651733,0.6545886435115345,0.9533242006906636,-0.49272020427794594,0.400924821399039,-0.6315229950450394,0.5475520661990602,-0.6152070467148358,-0.5439147477702255,-0.2800896412772527,0.24170263273716733,-0.20005661527392649,-0.4114366752678797,0.4794354087020227,0.581004460985241,0.6065994020304387,0.18351382739561517,-0.7317728490798117]},{"bias":-0.19774002306018015,"weights":[0.8771776189304671,-0.45835851313144094,-0.7439695129599487,-0.6984285384604608,-0.7756652841494797,0.7985700044533695,0.4354111387609218,0.6210053758019433,-0.939825185486623,-0.04686372195150995,0.632644253597842,0.4736463702246467,0.6452756131886997,-0.4170059325382242,-0.2213833486987715,0.7454744254956429,0.8482870807952487,0.03143440761278832,0.642898510284333,0.3812182508851121,0.4694167570226147,0.2819667319108489,0.9300123599772187,-0.7083924011894472,-0.24050255079646682,0.02605866872951611]},{"bias":0.7344422218266818,"weights":[-0.47977600530776043,-0.8745398936493033,0.7448372865587785,-0.24319983089606043,-0.929820953126,0.6742666480778599,0.06652988389130045,-0.7929034457854841,0.38540022772906946,-0.3401841045830423,0.48261838695947307,-0.2811320772731628,0.7661883254996856,0.6121655982574926,-0.6236368521499606,-0.0487754104479884,0.5758002167918479,-0.10299819129168014,-0.25910597960964266,0.40961532544481055,0.209720697577232,0.2241848710392932,-0.007821223921777077,-0.21276149516371365,-0.72768045737662,-0.5494974951398869]},{"bias":0.21031614727132417,"weights":[0.06681397824589289,0.5116936171809168,0.7781835096301365,-0.5632002168028887,0.12237937837257906,0.5488730473447605,-0.7756379988135351,0.9571048499504557,0.5510411346703957,0.4739824036982121,0.8848173492230016,0.2766366183751918,-0.5420766375664596,-0.7508969461293498,-0.6455406233108989,0.009734862208582315,0.1448087160212261,0.024182401584714266,0.04887431233026699,0.6555248466321986,-0.310454617126209,0.8991911633757445,-0.6137406415932866,-0.652538523296561,0.7064322171256969,-0.4836987237496058]},{"bias":0.828843390636902,"weights":[-0.37725378045632463,-0.24861688696454204,0.48965121211514606,0.9098771684534124,-0.9234679191644971,-0.4119212156547478,0.9239821342287853,-0.6793144947088957,-0.4449816530551142,0.6236425505023807,0.7044519108514679,-0.3862329422885159,0.8539037619379191,-0.3396273817906604,0.45123360674022356,0.4577655189015268,0.7071678580591994,-0.8825066733767015,-0.27558958472553113,0.008509346974883022,-0.728846290545006,-0.5361843840054492,-0.10754421584307473,0.11175206537544757,0.7825515103014414,0.24665085028292147]},{"bias":-0.33096760864062863,"weights":[0.9019052805054566,-0.942013847205674,0.6591080198066881,-0.7268735724131665,0.211488808677803,-0.270387083566147,-0.2345175443954642,0.9002892249888678,0.9359780181761445,-0.9732303470557612,-0.641890281951655,-0.5071590068379863,0.3308047099069976,0.5065458822084556,-0.8502011547064043,0.2578531326955353,0.18012827920450367,0.5287835697204182,0.2642187598650186,-0.659472627676176,0.6156341649814268,0.235665806168755,-0.7327411114740806,0.031581740782719504,-0.9540781630725367,-0.23451542914828297]},{"bias":-0.8981728390114632,"weights":[-0.10447973245078739,-0.9403305636170166,0.7276382823072225,0.2116945169191785,0.9268458928275186,-0.5448605018322673,0.7139653477692446,-0.7300130308277284,0.6319683532223374,-0.6941005876265085,0.31075476732046947,0.02941778958762141,-0.40139221903203415,-0.2063173703716432,0.9147636194578367,-0.3001957298044272,0.610890916028454,-0.6837602237399495,-0.5391237375657466,-0.9717450540573523,0.6139582882449153,-0.9618298878619159,0.9043762992249457,0.01189111951640571,0.7905804234398739,0.1514717163131097]},{"bias":0.8427531135564404,"weights":[-0.7940748270223891,-0.9165797456678587,-0.282333094267016,-0.42457374038986206,-0.9675315673506769,-0.9504273267107259,0.7304731188903943,-0.05914569335483943,-0.8942479961898104,0.4085177417491862,-0.7433558751551179,0.937900213081635,-0.3762082880025463,0.15317562850327762,0.63318794556668,-0.04372205879150651,-0.0436338836087821,-0.49792793688474807,-0.9276419740509969,0.7292153738837482,0.6405544513566954,-0.36251074294495295,0.7144541212447171,0.5786454528851812,0.7398031497513147,0.7532518253826742]},{"bias":0.8401695196333795,"weights":[0.9438426932467335,-0.6322878180192051,-0.8613932438175818,0.7799891491488614,0.3494628135183084,-0.3380665652406376,-0.2610847182766273,-0.4088755791359451,0.33677828757908324,0.16846644313699577,-0.06174542477653629,-0.39501177011255195,-0.3467963230952545,0.7067606390751903,0.34847411567783304,0.35350780554078104,0.12397623950821746,0.8625305009139114,0.6904372837905843,-0.8961100719891495,0.5634030980243806,-0.23775647531070127,-0.20046418141194192,-0.6164294582556686,-0.899646677929723,-0.3678932259051639]},{"bias":-0.5132195927944777,"weights":[0.503844372104514,0.7727539684452337,-0.4614734049001978,0.7737827118975609,-0.2208961001819948,0.5489181954500835,-0.7188940822064468,0.5087900365983968,0.9554118137859829,0.2640023158162656,0.9079988510032014,0.7238670255619675,-0.4340831685725161,0.8565496573084759,0.4610770691523078,-0.8561822807506779,-0.01962142242541862,0.9066298485822859,-0.6099598316216049,-0.8516193968931093,-0.5881442105745502,-0.9164477401211807,0.6352286577753444,-0.5579214913709698,0.06703329789886313,-0.3869200286884048]},{"bias":0.6163385860349583,"weights":[-0.7787169362128681,-0.6988929499711438,0.32280358389133734,-0.14751030290576922,-0.5123289586429457,-0.10835657084924143,-0.881403266876915,0.11606965088228363,0.7930879136830458,-0.8308010076703007,-0.7381016267013937,0.769150743974761,-0.15786706765221445,-0.2282814500706557,-0.5236182582039712,0.8481694352137551,0.786529989417823,-0.5772180579410032,0.2874786252383487,0.9834577492236822,0.31207229274760667,0.2563877082939598,0.06248138196327674,-0.6718763613127805,-0.0576870768029336,-0.6279929503409969]},{"bias":0.2302635869213025,"weights":[-0.12224713316359398,-0.37813005218312384,-0.4002829320102204,0.17997452995400529,-0.44546394827009683,0.5882085173117142,-0.5593597153715635,-0.30338877492133937,0.9961707134934495,-0.5708308645984843,-0.5840336758215793,0.5721161278675103,0.050354001174644544,0.7505038771641711,0.20087436962294036,-0.946817880213157,-0.7097188869419531,0.16302392705927893,-0.04826276462966897,-0.04832000236696387,0.14527841571122954,0.4916309462469796,0.0981116184422075,-0.04420508222787395,-0.255147463407238,-0.22725644903347963]},{"bias":0.4812082089303079,"weights":[-0.39573973892154984,0.8352558108919752,-0.49471496425410283,-0.6935840138334389,0.4076348782962974,0.7729249435331932,-0.3746777554805653,0.0823146165679345,-0.7442872493733889,-0.5033469325833801,-0.619514013855718,-0.8914491788273636,0.8449134254371091,-0.8155966541315077,-0.6952987955846057,0.06023612325477945,-0.6813546830230449,0.9928426593443549,-0.013665913722531032,-0.5366386570552656,-0.899375674873245,-0.32641262039544083,-0.46580851389333827,-0.123369765750703,0.679660811227398,0.7579970531816399]},{"bias":0.4874359651448633,"weights":[0.8547258488481209,-0.4828489719665332,-0.7946773080733216,-0.05022734454085542,0.7745420286800092,-0.6691239113697309,-0.04564633637327749,0.006368994257296015,0.9464120999622662,-0.09087631082358986,0.010907608412226493,0.9730534323842295,0.6921149057075904,0.9423870650872755,-0.045622558890958266,0.041197089252470016,-0.7985536827444365,-0.8708094575755745,0.44349084016072765,0.8449589028700352,0.838957378689078,0.34746812305772895,0.07453162403651988,0.7608889498582191,0.7803298113733009,0.15560923416830497]},{"bias":-0.33893575394958275,"weights":[-0.3359093181654681,-0.8902757100857415,-0.7533352301551361,0.10580237712400994,-0.35945054966557377,0.7341718261217516,0.47398528456160927,-0.3779546906409054,0.7367578851304605,-0.8759946673078479,-0.6290755876656334,-0.15057169916588553,-0.21910935527156591,-0.2331620987001652,-0.13031892790093294,0.6426385712719423,-0.20115195829433086,-0.870594998169723,0.2030136682630105,-0.19812188813200887,-0.9950835695950977,-0.5457983535820483,0.813897633081635,0.7957762656103143,-0.6576956661367094,-0.19494689374038615]},{"bias":-0.2767670931879468,"weights":[-0.6823750028258451,-0.391404573287592,-0.3255912406881938,0.6169003730379965,-0.0437313297912054,-0.009400603261460957,0.031566497053312874,-0.2077686971876078,0.4532371690562385,0.3107971169704154,-0.5475117472667852,-0.15681788744950328,-0.44156336880886043,-0.2261836707745782,-0.9340066774266591,-0.1451197758382715,0.8821244707348399,0.9401274362497918,0.48948334987546005,-0.20449987490545746,0.43402698633027487,0.8583504387230012,0.5399491257688489,0.7183968115251128,-0.8107676160802727,-0.4860847221422898]},{"bias":0.06065181093156503,"weights":[0.23280391084824445,-0.5489690702665257,0.026529545263574757,-0.1475827443115796,0.002751083618005431,0.698355168098941,0.058958746763428334,0.06647152543316628,-0.312461373611235,0.4054888062343881,-0.4485788387319892,0.9774590453419705,0.7010586266662666,0.9024256484379691,-0.2510008466361717,0.911833590204945,-0.509099265469836,-0.08085976021809077,-0.9259635457063754,0.8959743239491944,0.9135429763314881,-0.8329746157876198,0.5105479415387364,0.3059450482283146,-0.5543643363060308,-0.7039178213542185]}]},"LRelu",{"Dense":[{"bias":-0.4146902583918026,"weights":[-0.10977178640081765,0.5101442670182564,0.5518235361726865,0.3492706122403773,-0.7611204845966181,0.9329820916266983,-0.3191679885261849,-0.28239560752146425,0.49773560159535124,-0.29990151891246697,0.4794990853819472,-0.6883732073975009,0.14922600078259357,-0.9520079665365865,0.03783769238719635,0.6227180255475332,-0.6487610421881743,-0.6947508380388249,0.3405602807813139,0.8366554931811807,-0.21506753403303505,0.9809627389923944,-0.9448462311700156,-0.04266950777668683,0.09239166906797801,-0.17655198521294854,0.5832757750455246,0.05315931849948878,0.5407890126603848,0.2269100553895325,0.2984304299516085,0.7676424982186985,0.06568422571570769,-0.5813865928997816,0.812752510407959,0.7232864180354208,0.2877443864909645,-0.5945914477139003,-0.06435639990568529]},{"bias":-0.706929834768053,"weights":[-0.2046621485678484,-0.3263212958524999,-0.6737248650762674,0.007496679235820231,0.1593855660895134,-0.7348733368740307,-0.7521073475326876,-0.6282755082382264,-0.907202921998727,0.742242244063929,0.5507656044592477,0.4118238012635485,-0.6325572385132784,0.3368462769000913,0.4920559131943107,0.058629593827789615,-0.8712433945149438,-0.4514567185264941,-0.6401006989742302,-0.6744508264031751,0.894801422395484,0.9852212637540664,0.07690499074099655,-0.8120840390143192,-0.8269314381359044,-0.981615608590171,0.3709366424808023,0.31781168165497975,-0.7312101877983718,-0.8010493352941579,-0.5415760679087703,0.6396774204896613,-0.8401888100101041,0.5283278434456529,-0.8679951335466874,-0.8105628973349732,-0.7831348722490331,-0.638380117823972,-0.5377296433209398]},{"bias":-0.5658229235605253,"weights":[0.13831655829246756,-0.9236484352341203,0.76813867789618,0.7278354251970578,-0.7147931580527225,0.6944209876419618,-0.9099940927009796,0.733555651270013,-0.3599207926636786,-0.8911706413267277,0.205915999515438,-0.9941682243200008,0.6282578945949777,-0.3800563418386483,0.49270140735846024,0.9942948178816502,-0.11035208354002257,0.5452337874873404,0.1380547868355854,0.7762094892360872,0.7782904635170501,-0.3439705660641391,-0.5681494850506443,-0.03002532970389773,-0.3221191825277981,0.9846675542303606,0.4836240523542287,0.3038286558587633,0.5591320828225417,0.21941660774021307,0.06856285605931974,-0.4303989078857537,-0.4719235390946821,0.12478546874116499,0.6111110211278853,0.31413877739878027,-0.5335484562682498,-0.7413616200003338,-0.7833549406411979]},{"bias":0.4776646813803799,"weights":[0.30255406022830106,-0.5182437636902197,-0.5444197904687659,-0.02893903917578229,0.668983673616821,0.50732570301695,0.5781451276008444,-0.07161189241065213,0.8999137478057809,-1.0425760484749473,-0.3924253131349295,0.5416755153829101,-0.27569929807377297,0.590968290678649,0.641067962884376,0.9673806233669006,0.8622326176678736,0.8516352073924394,0.8128774081201634,0.8988258979966494,-0.669325297776162,-0.7913890639966261,0.45863987702442954,0.22669529902314522,-0.7223795399688333,-0.6150531570202296,0.7050455289886928,-0.7324472241942005,0.8321777425179974,0.009605387769112295,0.7863380665438444,-0.6077911618155053,0.6906174912119619,-0.7615940317317716,0.42280661583665613,-0.27754330710827646,0.30586312634126367,0.09388000358746108,-0.6304811550081505]},{"bias":-0.6369509442271212,"weights":[0.6697698997291331,-0.2580711881038423,-0.5723288192739084,0.5731649711787885,-0.8353506223278135,0.4138836215562814,-0.8678617477821606,-0.2178759331343557,-0.12709879705562677,0.3165616162057853,-0.19896080874004904,0.3172704464633595,-0.5941034148813662,-0.4127529382665839,0.7115837071868253,-0.7552355035085705,-0.524868117518339,0.8316804620412942,0.007524864899663163,-0.5036991081405818,0.28103539651722115,-0.8965032433458824,0.7832124114174162,0.34257562263856717,-0.8608095922966298,-0.30078067774401446,-0.8673637570944992,-0.17166706424930178,-0.9509672658748461,0.6166309629796516,-0.07991907814909475,-0.2842592934209527,-0.9532752554130136,-0.14252602373974216,0.2836399479936999,0.8259245314630109,0.5463045223875019,0.7877769117823055,-0.2978274589505269]},{"bias":-0.16305664579955664,"weights":[-0.7402021021864434,-0.4994571236394723,-0.06005881152600656,0.13212079547595265,-0.5155131459926446,-0.20758507196733028,0.6986251662249366,0.0493906737329793,-0.8897940026558814,0.1720640491225326,-0.8818730319485353,-0.533156564167096,-0.2861875736327485,-0.3842019300215922,-0.3796134778599776,0.01697356283582825,-0.6686627330272608,0.6103509418484131,-0.3567160432239585,-0.8671701358985666,0.8985035409857453,0.42353304319131063,0.9882981837012931,0.3318918937366388,-0.6696670204319373,-0.1819312590764364,-0.1787019592957401,-0.34493442831658905,0.01461460932985493,-0.3394463953663639,-0.8220136418514521,0.7473037220056601,-0.26708715067383443,0.2463802379392223,-0.9587038947808724,-0.36208148391693495,0.11844526903427356,0.8345396606406734,0.5925094096842748]},{"bias":0.8288471981450403,"weights":[-0.8338513629936165,0.1406978175670217,-0.5243064789907863,-0.22586047801142367,0.444696934796211,-0.9591826249400721,0.6060060325684465,-0.48297198052109547,-0.6254286441062492,-0.14533721479201508,0.3753042727140021,0.36346716292069337,-0.8264499366370587,0.42037183127442806,-0.4338086761220644,-0.6926746657254862,-0.5060635525575793,-0.2703321491568171,0.4287328200746986,0.22370168662122247,0.5844513019349652,0.5950326646314926,0.43289733571530875,0.7675398060946563,-0.6987537265218049,-0.8027963638773145,0.015444015019472642,0.29171538216779136,-0.021044104974063987,0.08755602060342388,-0.9505925924165118,-0.9745814126705598,-0.23910322435464412,-0.019266159458587066,-0.9680842096591978,-0.0045074112089456145,-0.5347147680312717,0.8756347653799712,-0.4193504939746113]},{"bias":0.026817548209988096,"weights":[-0.0330797736427193,0.6083096601726031,0.331532531886383,-0.49968033689249847,0.04179524550854288,-0.09374528068608952,-0.3180693357287238,0.117781730515584,-0.3664429245819363,0.9365041509994398,0.6481940084756671,0.30438031127089676,-0.20684257278532828,0.9556716176816357,-0.21996536452539517,0.7618667519740053,0.9174295179437931,0.6903048996692532,-0.7734901733851369,-0.7502819211332782,-0.23523916164197956,0.06387936863229182,0.3557397485321756,0.3001900609854515,-0.7863947864858919,-0.5172816370000529,0.43199640069401957,0.7554402657573646,0.5230719091112486,-0.20880693176951987,-0.5611313542295301,0.2598717097178965,0.2104368747216007,0.6695685871160232,-0.49564922648362164,-0.29043809841259105,0.926523388108284,-0.8280441484357121,0.3762272616592374]},{"bias":-0.9784748213597706,"weights":[-0.7110829073083034,-0.7182893044180149,-0.4185869235726593,-0.5771573538309571,0.44899032217986096,-0.32792378504128994,0.24741223165628606,0.5121934183385137,0.6059772933166881,0.7914696477954214,-0.8455960676753215,0.8410165373712946,-0.3061026561717947,0.7692661821894495,-0.5664846689607334,-0.8459973866297655,0.4534702904405321,0.7435243726989377,0.42724554733314046,0.635232690704927,-0.127442890696451,0.3926720168995557,-1.0156009851679544,-0.11593812160432118,-0.6786370556391013,-0.405374336327162,-0.18385540741496784,0.006148415836156525,0.027722873871391635,0.6393261432901067,-0.626260237167622,0.10403564488042517,-0.8363893731618349,0.19598440559835095,-0.07359928012376735,0.5211532619570894,-0.6207022213937698,0.9240797572846627,0.30678755158270027]},{"bias":0.772432685046394,"weights":[-0.40523336939523136,0.9362531334150666,-0.07390658715950824,0.9128418850861558,0.16405615520961098,0.1409966783832721,-0.010803447363947428,0.928781068356693,-0.7344798898987847,-0.9296570483890173,0.19738222577014924,0.7510076538126789,0.5592488744123668,0.1494082811512499,0.6705896003782634,0.758022257763741,-0.36088980266615556,0.41012356837075115,0.5855245065480139,-0.6151318008490492,0.2886784097851611,0.4654933967801215,0.0730808643925169,-0.8322313751840021,-0.9619165783035178,-0.16674877245583045,0.3386976818608797,0.30775457863736366,-0.5282822595358245,0.38697530966051197,-0.9405056186954669,0.37638459275536484,-0.7251665213427662,-0.9228338088817111,-0.6660581533976653,-0.04467123271344203,0.6189115459250478,0.8501526884529748,-0.29921204807763957]},{"bias":-0.7605163703751163,"weights":[0.3484159123735473,-0.9946328238342488,-0.37117400270292755,0.7724745264793325,0.6377109992467488,-0.309491400077562,0.02610758217083171,-0.575271173897082,-0.2732985036120421,-0.8788964072641934,-0.42362781736687294,0.09862417704781944,-0.2658254494869938,0.7050903147304367,0.004452111764304626,0.9904306800587871,-0.37202716810746267,-0.7477699781205341,0.10038119731444084,-0.758135485116382,0.6850773259470443,-0.955250785308323,-0.9496809252226308,0.6118405342576363,0.9920454220294297,0.15934706339246965,0.13217723445560473,-0.27891086692145006,-0.2529699723389617,-0.2214608037031864,0.1609527434879252,0.16475625017056925,0.4604272018456915,0.6566380725696706,0.08932379632850869,-0.19509372876794367,-0.616123787622992,0.3322051736595247,0.36870267522451944]},{"bias":-0.2528084944724505,"weights":[-0.6459065038229045,0.388145354556017,0.5458498079508207,0.7518111440610709,0.19694841915467873,0.1030627093375419,-0.6350506977203965,0.09158157017895305,-0.5165249651522873,0.17826256586556624,-0.5784297770528052,0.9185030369199727,0.0005675471313446902,0.8465840518772019,0.24214071503631063,0.2612170394317022,0.7075884899753492,0.06639553301736072,0.36232814997649737,-0.7514565719111611,-0.02245469250169389,0.17784236963210015,0.6919185942891629,-0.48939768161911434,0.12887518406009554,-0.9228285202788712,0.6899756489456648,-0.7892044728020227,-0.43142628573741904,-0.9816702387811296,-0.6740586230600367,-0.300177506170739,0.6847009773668086,0.8901504027843106,0.955996725636374,-0.5459582569465075,0.14474509887302228,-0.11969766189272853,-0.26463668677067687]},{"bias":-0.8182255802203078,"weights":[0.8223356235115585,0.2154838109446743,-0.09563398674394241,0.8634814135843167,-0.9444555281474735,0.31652380103239947,0.6694039879509777,-0.24531079814884,-0.9754345085641181,-0.7885424562592686,-0.6061263407992868,0.14168133115366752,-0.3658984747310529,-0.5042368144590226,-0.9476080406219396,0.23307913373597577,-0.37039663700253966,-0.77334746504949,-0.5721946984839624,-0.8396174239932375,0.07376191410940798,0.035054125850467834,0.9652584001074221,0.22373821253783432,-0.6062707339245714,0.41857570207150335,-0.7614387080712481,0.8731047343257659,-0.16427724629096427,-0.7444175463351351,0.5887199154364986,0.9231942543496579,-0.5176499574902038,0.7809527920412601,0.8918196908187332,0.060860907734485464,-0.24338216604318108,0.04929481376181325,0.29083207861731447]},{"bias":-0.7030656148931343,"weights":[0.7255287210264775,-0.3493996355724997,-0.09829168173291448,-0.4341722574862244,-0.8679010222302644,0.16897489591881507,-0.5536485447382812,-0.5876040112034544,-0.5402630844367845,0.8230349211578206,-0.7704989880544452,0.07799599083147095,-0.17772097539547002,0.8699289578945009,-0.21444363122657997,0.42706604021902794,-0.3803585770215665,-0.18180263346902353,0.8170640810956105,-0.9953245303889541,0.8992278914536863,0.5277071267964871,-0.6480387019226073,-0.47207250618859786,-0.9623743116682458,-0.7792419592854626,-0.25642892979842763,-0.5507845753188384,0.8827025269696387,0.8487588489279521,0.7843211209620526,0.9410250496943282,0.061758065601207966,0.288348860011314,0.605978380349087,-0.9306618777292079,0.9629957166720103,0.45085876469576275,-0.08858649094779297]},{"bias":0.08656127262938303,"weights":[-0.2644418519283554,-0.8114688055333724,-0.439543991263089,0.670736116776323,-0.3358942535955786,-0.5074067059861419,-0.5438447727539107,0.34234910690419423,-0.8286956674627965,0.19508561207453787,-0.7662665181511902,-0.3372674006466774,0.3191479237258269,0.4154471674895637,0.08735412669699735,0.8128911994137363,0.5925595652896791,-0.4131113021536485,-0.6872316165377852,0.7190282064209521,-0.33189071715815915,-0.04140455536628168,0.5652043201596322,0.9882459939160839,-0.2931935471651398,0.3585705605777038,0.2087098713477201,-0.6367231068272846,0.13879214094290201,0.07020227993856136,-0.29940129468820526,-0.44711905031018784,-0.7257433462377127,0.698281304238862,-0.39297929860600495,-0.5294858694216357,-0.3006592532438746,0.0516114280370497,-0.22078166495240673]},{"bias":-0.06163823090754166,"weights":[-0.42324530910216485,-0.5889253542574528,0.6520357722598459,-0.7656550413935774,0.5738717524713047,-0.9699159114563574,-0.6713927266300539,-0.8003527653220457,-0.09039284679950699,0.13289548406980298,0.8765206434534426,0.8742004637942917,0.09470432071404147,0.6972183535113743,0.1986438495135441,0.12877231826502597,-0.9851055085928668,0.21835812851689002,0.22435294584162832,0.9574529719099104,0.7526473897870397,-0.36285639671578546,0.6344169213828826,0.8873185889297862,-0.812067822444726,0.44250154695266575,-0.7990250881972014,-0.9553944934503208,-0.07323242713643646,-0.3883621871687736,-0.48193904081350564,-0.939461074930874,0.3801321754987541,-0.5595332703617241,0.8649233530713533,0.6896347704403801,0.7400247875518847,-0.6083183982471729,0.2305181148230477]},{"bias":-0.5491835985313163,"weights":[0.5584912383537103,0.7558256179387357,0.29565501162728175,0.6192423469406498,0.584163478022017,-0.5237474445396213,-0.6068833990387098,-0.387795452366847,-0.8361592431487986,-0.5384479338620194,-0.04339281125791533,-0.9549635752244581,-0.4632606028643365,-0.3286697618993351,-0.5516980235445899,0.04790111176390538,0.5748357031088454,-0.6405957140676346,0.06822862659492065,0.6083701579503725,-0.866960457125759,0.6968967002913288,-0.6173227224671868,0.08078887645604522,0.4683302368067632,-0.245551540567194,0.7621703217246021,-0.21155274145675593,-0.9694053464026997,-0.034088992994299246,0.7590158604816768,-0.3462393090181109,-0.4987308267569533,0.49777369965757023,0.7227629532169954,-0.5988474434625255,0.4375569406132054,0.675534071206678,-0.15960717262318636]},{"bias":0.2482975068631262,"weights":[0.9332786116486899,0.8765743836503883,-0.9672431204963519,0.6943344696531427,-0.7833828548846824,-0.08574008359877167,-0.5829066913595883,-0.11878965902707599,-0.8494058308187293,-0.21044851815985527,-0.5480097159706313,0.6238373098562988,-0.2607908241407612,0.8845541278883199,0.006467336241593968,0.005323062582819469,-0.6442863626519297,0.8214174626086834,-0.8549328431311871,-0.9893511737017817,-0.4481978818491506,0.6146855439073292,0.85201028906262,-0.22434454700415182,0.7470524553496731,0.42970307833211546,0.3129075251866067,-0.8537827511709044,0.14747072264760594,0.4462080567519301,-0.07963087672901008,0.9320565949929986,0.9348754712192061,0.2218551649566209,-0.7609907245178852,-0.2644570742637211,-0.8602710252508654,0.42074373487287264,-0.058746520496185964]},{"bias":0.7280975047676856,"weights":[-0.011368951780175038,0.3830125265053954,0.780661402216358,0.06312706375031553,-0.39999348760033304,-0.1566083355671894,0.03695321768079956,-0.9518456653040867,0.019526315616665686,0.16461887659379776,-0.12904942343724127,-0.49178631456613914,-0.7255836353042192,-0.4052099823180929,0.36938188593932175,-0.2255122622513168,-0.6062704950373489,0.9411545270233925,0.25780899646899835,0.9107615254546508,-0.09086127346340582,0.8637132080838481,-0.2640000565942144,-0.28351079190953454,0.8985246905945423,0.8587524079269961,0.8484257365740171,0.028791127908100046,-0.5545041816957089,-0.23035475618565915,-0.40703053960115537,0.8639082830176584,0.17182873779144256,-0.6510166451908885,-0.5101005962149145,-0.7881778279471675,-0.8369626498972018,0.8688586468282439,-0.5052015329821331]},{"bias":-0.5572555978721965,"weights":[-0.8511891473345627,0.09683070559180812,0.3964037836879176,-0.3275274703249535,0.12711446060885548,-0.931460802615106,0.8133150203331756,-0.7081974109395618,0.4314218330695665,1.00530931392252,-0.49716844734991905,-0.024325365124785225,0.23637052738696304,0.4602269190094551,0.6380063200251549,-0.6663202682628323,0.011767401603279897,0.2639018268674341,-0.44196119416521357,0.5096235763917681,0.23174972338249916,0.36361129675956466,0.8225898064589503,0.868627136560801,-0.28140325245898096,-0.32195376827758676,0.25888517896329294,0.6371324116601126,0.7184687586651889,0.3696876521579524,-0.4001923332174625,-0.5868142874319493,0.6295506620733258,-0.996090779571254,0.5295617349554784,-0.02325028594681122,0.17574150592131657,0.47104609732914166,0.6742660401735134]},{"bias":-0.9708494963042515,"weights":[-0.8466427126513038,-0.05028212694935917,0.3351821828992608,-0.682204944135191,-0.07983679498755532,-0.6935230326192995,0.06415318860720616,-0.48700250840959813,0.607490524084576,0.28102173298215316,0.9823036483697088,-0.1305517230895095,0.6623820487428353,-0.8418302465960007,-0.24758247130226768,0.6049980050215861,-0.8812357202483515,-0.18215787371742256,0.286541561810552,0.9455006028311899,-0.6927020481910321,-0.9135841974631256,0.5067562308625132,-0.6644857051857707,-0.7286284648516571,0.6641571698594826,-0.1522546543162167,0.45689965260054294,-0.5801007707558467,0.24446300886196548,0.3121221746939717,-0.25280953817080204,-0.8273015709101175,-0.19739622246425884,0.8925984520058963,0.9007609049478218,-0.08430036272289892,-0.3449753092913816,0.989625323950609]},{"bias":-0.7860614978501939,"weights":[-0.7246655865753935,0.7106078334941168,-0.22910096490997692,0.060237966713898417,-0.9332724366225932,-0.8891182240813716,-0.6846714670074783,-0.551072784084748,0.3463498879395692,-0.953827693915058,0.498809710715807,-0.2997479216833822,0.8735522049931995,0.8745901202516243,-0.14239893886146684,-0.3759156093587071,-0.9630274684179836,-0.738400864964226,0.41982054144818287,0.11281075505735787,-0.6120481204549577,0.5448821382554171,0.7822710199750738,-0.9341464205033537,1.0065628727125817,-0.713461755223501,-0.5792437420578105,0.45470676906225954,-0.2182219955560801,0.5931137516730408,-0.28181390099615655,0.15673856890208018,0.0676525837935068,0.7090141886992928,0.7138331768045176,0.04121026234268918,0.7774534998511412,-0.7595262924461452,0.2845355707269574]},{"bias":0.06456679330234376,"weights":[0.33645358520978613,-0.5078885964430659,0.08278109870849824,0.4395581723133131,-0.7097790581321445,0.9315697926600605,0.251073749265175,-0.2366642838368639,0.44208363355692226,0.8396865280343636,0.9962262982399476,0.5295334984933594,0.20234656397770312,0.3933352686839122,0.6526981133455195,0.16609921272117043,-0.5910600121783393,0.7375398389499374,-0.7891378218188807,0.4072573645975838,-0.8873694588480969,0.5807993102373469,-0.42268174301399686,0.758662696132546,0.30103152940526895,0.5445308700886053,-0.8799641139584453,0.5110345812936237,-0.3837751055269012,-0.39372836855990284,0.7801408327587521,-0.15517743874359144,-0.6797420979790808,-0.6881347300418993,-0.7902247394905857,0.3789500592078839,0.09368822250908565,-0.45473766542854344,-0.2657333519044436]},{"bias":0.7958634390387628,"weights":[-0.6717936465105395,-0.9156258323010029,0.5698007972603353,-0.5128795910125502,0.8880870395144655,-0.3199234279677089,-0.9970299249858394,-0.3630496573545853,-0.06259534384565756,0.4920636201572561,0.11361881344898422,-0.3708000231948979,0.09133755493918069,0.6822683995896132,0.14649406508622828,-0.17005329519573917,0.195746200753976,-0.48086940159282715,-0.372262848956824,-0.3069977399342178,0.4691721637357333,0.9391020775023939,-0.4696695417437088,0.6047604666657324,-0.7861423112540282,0.6870913667864588,0.7861168698766764,-0.8160573290445261,-0.1581252463616837,0.6186309212352257,-0.4325695836408431,-0.292418334361678,-0.571976567628095,-0.861934889606354,0.014583764365010682,-0.5782471101294739,0.5708529119340611,0.5797101234387702,-0.5169225133085149]},{"bias":-0.8109168933994529,"weights":[0.11254518777632089,-0.20770621254864952,-0.45326356473621954,-0.6725684233425177,0.4010664833400286,0.08894187116846455,-0.17432968421063846,0.31842355462913424,0.41437334419775607,-0.9718684912121971,0.5000538966147008,-0.5768179289187986,-0.6364707336768713,-0.836392796742882,-0.30387974563824516,-0.5308614550394564,-0.7210975140763486,0.921035019128507,-0.9660689227467638,-0.4611464961639686,0.5656629680620524,0.04165339018736387,-0.5396773160956825,0.9375711763907489,0.680359360067196,0.2874221424748452,0.18022223904067247,0.45183055474391576,-0.7361906417577719,0.9648457033091375,0.21945134429568183,-0.7118097799932971,-0.934677651335907,-0.8854768907342432,0.09971391151096339,-0.19642599596520963,-0.28168895853679937,-0.7041446667856835,-0.7910780663497611]},{"bias":0.47529995481689513,"weights":[0.439504478538145,-0.38098592983956747,-0.14669839333722423,-0.4603594956249545,-0.12206516380435115,0.443244835642139,0.5139762337725906,-0.5739026666107002,-0.5877942502312117,-0.3922147123151059,-0.5272911983693505,0.8270089230296825,-0.01876879314538216,0.4142355869677965,1.0065464405769742,0.7918434355759962,0.10934525930028091,0.692717799272705,0.33213371259770863,0.015891540781012424,-0.5151563698173623,0.579780499053613,-0.006339231922120235,-0.4001420228517615,0.18510295351998324,0.8836609018939373,0.8658502425411062,0.1969803332084637,0.9243640024443037,0.82950006641364,-0.09175534452597288,-0.19349383197629852,-0.3103586278087476,0.6450962586889036,0.4829035926396439,0.19280177593696268,0.6420424697715189,-0.5481504022107564,0.4958716998952426]},{"bias":0.37382604882299836,"weights":[0.5026401344303083,-0.18275871804465624,0.057840508972791284,-0.5053785213540594,0.38574221800232483,-0.883707970311627,-0.43132244091899674,0.5078068230032982,0.018530687764238944,-0.8873573916009349,0.8580100301519751,0.06336072361031332,-0.5627855547160662,-0.04885254908471857,-0.7149682432158212,0.7834915515450694,-0.015790918860216573,-0.9238219155853767,0.21935821555217322,-0.534656175856006,0.30394707743931354,-0.6978248303585542,-0.705341864599691,0.38375849366365095,0.8529090252032016,-0.275436059797514,-0.9110588954532542,-0.12446918031227248,0.4429324894451496,0.7296510788152547,-0.46430405428449784,0.32899089377353885,0.6192948886740793,0.2510905461761607,-0.4930896122504036,0.5618479069068912,-0.11740152740454109,-0.8339435807073212,0.8435290374962949]},{"bias":0.5428940051828534,"weights":[-0.4708401876800686,0.8824130098375476,-0.6638678808231138,-0.3694309983597322,-0.008113468021279272,0.10826996764237834,-0.06253864540042608,0.5643331642664904,0.26333044464747235,-0.7202129538658245,0.5079535293068786,-0.7672675798973384,0.5976972629125298,-0.04390559899745536,0.019499713036946757,-0.45612146811710574,0.6295622609586689,-0.9330422438265236,0.2019180799276591,-0.5511344796034159,-0.39429914583315895,-0.6963324373341877,0.26324105543275916,0.24136655940288929,-0.2584188603735037,-0.01058754257672465,-0.042000394764320374,-0.5874541585757513,-0.7466434280787021,-0.11081373439493986,0.07077261601154672,-0.8758986724736543,-0.9248920307020626,-0.2752641420098072,-0.9584573380430056,0.924572715435964,-0.2727358453541803,-0.1759734252750667,-0.8339095965786109]},{"bias":0.8552184947077744,"weights":[-0.33750764728277094,-0.835727614053788,-0.009022664010450257,-0.08200254213502112,0.5258595040719979,-0.47528369502048234,0.0322398350706233,0.4477188462782951,0.400419812189237,-0.6884038826206317,-0.6243512185340785,0.337744405393949,-0.14554324408282973,0.5099446142972018,-0.3269614803466295,-0.4386370010188852,0.486504474107801,-0.5139325699219872,-0.5744436906178854,-0.28120671676124115,-0.06529987201051567,-0.9925561030060301,-0.56977726108617,0.6923943437396919,-0.36248780669282854,0.012937701663888296,0.5778544601413244,0.12443219787599294,-0.06482720856060972,-0.2666983090375715,-0.6292947704840403,-0.43296394511753555,-0.7863920618885195,0.6980042329263745,-0.5133334900356059,-1.0048581860415422,0.5726272436117733,0.5087010616159939,0.8493535866516578]},{"bias":-0.3732856886368681,"weights":[-0.054155220314718325,0.15618138230542164,-0.9310020380827156,-0.8207965303808811,-0.3936844524948082,-0.4852811090675441,0.3007691091620546,-0.8725611171108791,-0.5350595498339734,-0.03265337574259396,0.1557509973585508,0.14680230135280425,-0.483947425392074,-0.6052757099732254,-0.15237394601388157,-0.49291040531203983,-0.5279062413768826,-0.5652859086491627,-0.09644371406455406,-0.9480907689738498,0.1956559433878316,0.9168010473213186,-0.01349596913738911,0.941446657753627,-0.177769066454407,0.09320638016378116,-0.6472076729473936,0.3621630954883433,-0.8680387946987326,-0.9199248715312718,-0.6554491426322869,0.38767650096535,0.8171539695226605,-0.7950890668969911,-0.44502296028718663,-0.5582300892860028,-0.2830412159287174,0.9041316019266817,-0.8254775214334942]},{"bias":0.05507137848946748,"weights":[0.9311814218707942,-0.6836619696504792,0.48966271188359217,-0.3483235062984415,0.3703209454182784,0.2213877643220596,-0.5813299875001378,-0.6043071449191362,-0.5069518550504661,-0.1684411123762957,0.32554312069564956,-0.055472316368719805,-0.8659483756351555,0.20700813937911888,-0.9992356789853811,-0.3037123862749828,-0.6087739348730989,-0.41017471516303083,0.12689682261108937,0.033074067526104096,-0.6248280480170165,0.7239198178991104,0.655018193962267,0.4880408057853568,0.3633296327594699,-0.886035398005898,-0.500062830226829,-0.22554850173954197,-0.8947899290696988,-0.5310768800310277,-0.3167328235443223,0.859058529502168,0.6229298542059494,-0.07446014771298888,0.12100954434375064,0.3000971977052713,0.8527309629422853,-0.4689255015509432,0.731662042318369]},{"bias":-0.9454887137184876,"weights":[0.42750085189005443,-0.24929708815559218,0.610965749822454,0.9387182225038421,-0.2969470985926214,0.25208430628014966,0.9357803848688184,0.5580005944370764,0.5880127405489374,0.041188191353766494,-0.7433583881173441,-0.8555988662483527,-0.8821997415395068,-0.8012728740256514,-0.3091567245719981,-0.6946507330220617,-0.24261970107727435,-0.03750788077277916,0.12791313941236745,0.5688970967608674,0.3012742454164849,0.01641443619138684,0.9969852830211839,-0.19646292204174398,0.30750288455886365,-0.26436761656971214,0.16608507495218983,0.3172593302289509,0.8948391115193083,0.28131499776487856,0.37171736869020433,-0.7953869824042817,-0.12171539622929214,0.04085838428534242,-0.05751455888045444,-0.2325906770413745,0.31830336925801106,-0.053735929450638105,-0.1730187065800112]},{"bias":-0.8061489974176079,"weights":[-0.5863974750549662,-0.8435835253063161,-0.7017783869637961,0.6565536413082835,-0.4122594083309211,0.4849154508013085,0.7717956078433564,0.687721141118969,-0.38658483244317565,-0.5699777426953562,-0.17709065914590102,-0.7186552385721556,-0.40388429604462683,0.789708239787828,-0.36706542666104014,-0.19424999264964618,0.2290040969235998,0.8191505779332581,-0.5676914774780971,-0.5476377117342318,-0.16536732389213987,-0.8743807008046108,-0.4977305158638083,-0.25982560117146736,0.8840410286897202,0.5066296754748543,0.1384520796080208,0.5810286883793133,0.3854991272387166,0.7908018428412464,0.6953856585861216,-0.4932744932585518,0.514317496565259,-0.1902663766759047,0.9131281620202256,-0.5661800619519035,0.23222938943781127,-0.18739048717091433,-0.3280630527526892]},{"bias":-0.7446435601032991,"weights":[0.006481251703306465,-0.29641207439857087,-0.4206864498723352,-0.6019823716662532,0.8065725028017122,-0.11703103356577148,0.004708022547206784,-0.21813174342751773,0.6008407897326159,0.8540664147226384,-0.08822104586273075,0.8078902464359274,0.34664576817892756,-0.8772110705940143,0.8090656103763983,0.27761942661924016,0.34599522872295696,0.9255981889322971,0.437907137822697,-0.1023158669448612,-0.76310764233984,0.127638235208836,0.7526939865952429,0.9980251621892698,-0.07990528023773205,-0.1429943079127459,0.9835728575156915,0.13800510813289926,-0.5300198501421632,0.8013953918414959,-0.08338015683750322,0.16330724375572292,0.38817650497861156,-0.5226286011484784,-0.5681963089278025,-0.5770972455042082,0.35204370351452746,-0.8715764407617846,0.8975891207035579]},{"bias":-0.8062832149697808,"weights":[0.5671637484716249,0.7139581177629319,-0.30720364073121603,0.7317708068829673,0.9305143649668804,-0.1338496722947896,0.23553863668212807,-0.5023164119369021,0.15528629170383565,0.6249777618061406,-0.586706751701384,0.803237634854383,-0.05182285042299146,-0.11335079769034102,0.04800545704862544,0.1463508148144445,0.17501903445641567,0.2727622747185979,-0.42999917736325544,-0.79609892472333,-0.3131859712672655,0.8558873608921294,0.7620335723050419,0.8090022779837968,-0.9080456940121759,0.13403419685124077,-0.21970996560753894,0.6751077156863768,0.2742370514881221,-0.4834620199616806,0.07362334472112528,-0.7693817003138749,0.14702638101563306,-0.4087886788719598,0.44008539577719885,-0.5854721555223841,0.05917035859238508,0.6340205828173849,0.6094650482137225]},{"bias":-0.6384560032960126,"weights":[-0.3746446517705279,-0.18106018984288363,0.25677335880030333,0.5913857302419262,0.884140380345207,-0.6286942031229356,-0.004912844635251016,0.957001429076951,0.10847066366253724,-0.6724534889353685,-0.6297551230155671,-0.08065203637575752,-0.641928016268986,-0.21162523612262307,-0.46386243062341537,0.365241812023035,-0.49067192010465194,0.5229788197437367,0.8827186374321785,-0.5799431134571265,-0.7595725012573725,0.4567334587387767,-0.358185809345952,0.6132175987833275,0.013956868988114003,0.3830460691562361,0.09543170257203124,0.8203875624901725,-0.3701556991647343,-0.4748654263584338,-0.269937654106115,-0.8563403003553991,0.1730749619983609,-0.5685578980469973,0.43773579526091144,0.6385441657631291,0.7405024159308043,-0.9799363618028057,0.42568440067036056]},{"bias":0.9046570506813902,"weights":[0.054023896228456145,-0.31144693150644115,-0.7707007346489074,0.6057911882249349,-0.22889924034407008,-0.48009657288067475,0.0684085125057014,0.9593991510366574,0.49755138096352985,0.5507715020443522,-0.7482247689474133,-0.03545489254316081,-0.7697016126707105,0.6766370030721625,-0.09660372838402448,-0.16291147755083846,-0.16247880150622138,-0.4204571780122271,0.6345327011057765,-0.8917917465825708,-0.9164282906978019,0.5628436272810218,-0.0011927448617264401,-0.980567995724478,0.6074686606638626,-0.6732259547497877,0.4349074156881184,0.4375383074043199,0.565407060139441,0.6976843308056931,0.5619752815759551,-0.19554145251029545,-0.3267575800247101,0.4716950389856314,-0.1873610371450893,-0.014274394437807767,-0.6999494284192012,-0.8589763025667034,-0.22942966798014636]},{"bias":0.807353040914436,"weights":[-0.8308464238920102,0.4726139922425102,-0.0645372928737925,0.09626464714139202,0.033225501071725144,-0.8803460255496455,0.9004812603761763,-0.6193187406020619,-0.12808054024983825,-0.9179116275753508,0.8033980086387033,-0.4497916413683489,-0.12979048719042602,0.528798888629886,-0.34582684387428997,-0.9572272883489167,0.8474808720747743,-0.2537826051633892,-0.2197144471062181,0.19293858118420346,0.4167911628778138,-0.4230434388464436,1.0033711470733706,-0.17238118305674796,-0.7657838787633299,0.49625109328260636,0.9169019236187737,-0.5212168196508232,0.38132281634791204,-0.7365880577832327,-0.267246700520301,-0.9001743819528287,0.0420966019257362,-0.3313042050800343,0.6999535093038645,-0.08801166579252823,-0.9713409546451599,0.34190248541753643,0.47871876935113583]},{"bias":0.1195365232943657,"weights":[-0.9851054651343614,0.9182166040236326,0.643664187766527,-0.7308409658677202,-0.6932894648314986,0.42913233991197297,0.6488292195767527,-0.059370567519577276,0.22833455673334793,0.5297395745822046,0.33105963927812754,-0.06357058123673864,0.05264350335987953,-0.526723591890085,0.8828081506698167,0.8712875465458463,0.6454588636107971,0.25030693231359874,0.5356027414540676,0.3776145365532658,0.9736700667106254,0.458733067272751,-0.29794598198187,0.6929321619472787,-0.6938119111772048,-0.6869924332753103,-0.8079540976209494,0.6607949204072354,0.8211308678126772,0.36482032362891215,-0.31639199407329216,0.2750009497367868,-0.8426636796557501,0.7662070928760101,-0.8634032448751975,-0.3359007641085589,0.3435015211399048,0.7957937704833381,-0.03547243692865703]}]},"LRelu",{"Dense":[{"bias":0.41145393085558324,"weights":[0.5381446314157189,0.5012757515484066,-0.31075991040214784,-0.6620649618397704,-0.5658927003471192,-0.5923525469439518,-0.48061569000796045,0.40771441042356854,-0.19830030304991353,-0.5454549912804281,-0.7888767440857218,-0.443532776761456,0.7049189185912753,0.5595340455670237,0.5208418680802304,0.6704019038484258,-0.4612451005949908,-0.1083069652741361,-0.17826794257820155,0.36823170542474115,-0.8897864575206397,-0.6210232112724839,-0.5652775083318853,0.44116059488895143,0.8296281491981485,0.7243756904787007,0.7201666186043307,-0.0571586080100459,0.5425548627134763,-0.5382195609143715,0.7722745572679018,0.07628404919358947,-0.034506958986017786,0.0019673883710769322,-0.4809568979453808,0.5388498630563402,-0.46228941066660406,0.2197872479701726,-0.25703114723639675]}]}]}