{"inputs":26,"layers":[{"Normalize":[{"mean":0.3684210526315789,"variance":0.4823763889427199},{"mean":95.71947368421054,"variance":62.662487097119566},{"mean":4.052631578947368,"variance":0.6862318321265946},{"mean":5.473684210526316,"variance":1.2718995761678495},{"mean":4.526315789473684,"variance":0.4993069989739547},{"mean":729,"variance":2091.6142594958364},{"mean":23.306481994459833,"variance":54.22682258945746},{"mean":1.6842105263157894,"variance":1.172160918490531},{"mean":2.0526315789473686,"variance":1.986101290959285},{"mean":190.31578947368422,"variance":178.53498923816437},{"mean":76.76228786251343,"variance":11.38870090905766},{"mean":-4.2915789473684205,"variance":1.363456378619753},{"mean":-5.449473684210526,"variance":1.194189765772551},{"mean":64.11315789473683,"variance":6.810373706904845},{"mean":79.70157894736842,"variance":8.010658861895323},{"mean":0.012226315789473684,"variance":0.01882509081840854},{"mean":76.25473684210526,"variance":33.69268847257065},{"mean":7.277368421052631,"variance":10.357335484474284},{"mean":0.3206647368421052,"variance":0.7710903652168103},{"mean":4.669557175080526,"variance":11.770396580769368},{"mean":95.00977756176152,"variance":12.470435257704647},{"mean":-9.257894736842108,"variance":2.4906806910379222},{"mean":94.80736842105264,"variance":13.420458005403251},{"mean":50.473684210526315,"variance":7.85639813717143},{"mean":92.03894736842105,"variance":13.917628312300023},{"mean":209.94736842105263,"variance":130.13291734716978}]},{"Dense":[{"bias":0.34360599078429027,"weights":[0.5592656606940343,-0.2300890749701562,0.9005341897707901,0.4142003698534778,-0.8803959958974981,0.3996023876941725,-0.3516151000585472,0.4284524881445553,-0.6099731645721109,-0.4141185614950134,0.15776404445430514,0.4982450620991722,0.07916944158737374,-0.8922025019596841,-0.5800045044290866,0.39547851078386626,0.1071908252489735,0.4349562244810315,0.6685032622723455,0.4647112880474848,-0.42756710512820456,0.010243773028981912,-0.4326977161801636,-0.3195963893450373,-0.5998827064669101,-0.9193216765488014]},{"bias":-0.8229724301005756,"weights":[0.41457370585937986,-0.9977397193388682,-0.32922614935437106,-0.5672614598436974,0.775350801907898,-0.26812123734092264,0.3507415199160728,-0.5577780444302525,-0.4241247014631546,0.0014544304625080133,0.981298144006028,-0.6623744823388549,0.6163342071405448,0.6257936297795503,-0.20791783511352135,0.34985058362991456,-0.4134468725552213,-0.7959714322388733,-0.17823555194592555,0.1767761839903106,0.22561637979574048,-0.870798431175287,-0.26971939003152173,0.9650469934063617,0.6600282247189925,0.09969779547155846]},{"bias":-0.17121691308338963,"weights":[0.0027650198762400333,0.4148087965936164,0.005912873314070611,0.6401859571018405,0.6434340523218255,-0.1998885889479059,-0.2041257203112968,0.7397948843192207,-0.49845074027172825,-1.009813716483933,-0.4044132561729854,0.7428291172454756,-0.8773735023078699,0.7406639402456469,-0.42085838501945705,-0.6562931940220691,-0.28947221694837394,0.8786309173214961,-0.9155234049916421,0.22075409568021861,0.10137834634147098,-0.0549776039139077,0.17823934618774268,-0.6348058964073398,0.5443309827731484,0.13385424618743083]},{"bias":0.29438708134691377,"weights":[-0.0005080462847367538,0.008592910537387838,-0.3316444289420686,-0.35032818915948877,0.46385584707131566,0.26613998085370855,-0.741306416259358,0.025194986289105832,0.04435032228060581,-0.049161163238758035,-0.8806601953787175,0.10813478607352695,0.28656339300793754,0.3067264174298105,-0.1005219467582622,-0.11514455482850025,0.33868329755714044,-0.4804821908299245,0.5222553656487532,-0.5644906475153181,0.9428849059130493,0.5650611262369157,0.35434627153630865,0.21427479251232492,-0.4790040344376216,0.6145978325243849]},{"bias":-0.8191639880598944,"weights":[-0.7196388211422582,-0.781744278427205,0.8610969427944304,-0.8675771962871878,-0.03731472747870124,-0.07192847629928811,0.12899493524204367,-0.6344683235526825,0.5042522710478236,0.7327388204704276,0.6226097551081748,-0.6506307739270004,-0.5794376095677964,0.9066339843693101,0.32559873374600157,0.04575425614612225,0.45474179564446726,-0.2816863793219316,-0.1699814662899405,-0.7041054756620624,-0.3169040649175466,0.987577897492041,-0.09940526037130132,-0.5842959479611399,0.93144731119303,0.8353245210745043]},{"bias":-0.23598546150785113,"weights":[0.6184271222839043,0.3764099329487089,-0.6300401028980748,0.36021172321722034,-0.5246661113659384,0.5616604264575753,-0.8111155892802039,-0.9834067911974206,-0.49783106800372723,-0.3962799609550931,-0.589208019569862,-0.9176775215577507,0.17435148296443392,-0.08216874747859931,0.9355947216581565,-0.06530943195855622,0.6984359376528053,-0.3936554744148151,0.3308449423065845,0.4373778862492062,0.38845370520988415,0.1376865994175513,-0.6153212709325236,0.5860355201057739,0.26522482684549004,0.63382628431345]},{"bias":-0.5370106065547211,"weights":[0.29241115429189996,-0.6052454786170417,0.5982405644645226,-0.276097071863377,0.20773976099698924,-0.5162981916378985,0.9727213171477548,-0.744950197712788,-0.8446597474109017,0.3400590550450918,-0.5674077158644271,0.7220948922368672,0.7666765937740737,-0.38491145455677966,-0.6136811392098457,0.884153608535918,-0.2628803906794604,0.9342249172424337,-0.5648732289559982,0.8891557183269267,-0.4623647755679076,0.5955704170226417,0.5026193181734523,0.6099410372902927,-0.6637484977361627,-0.9805345115526578]},{"bias":0.04767472854569742,"weights":[0.35900713851911753,-0.3619272916275274,-0.6941179933055383,0.5411950318173672,-0.29466048773226194,0.5408179626925761,-0.5551534653303298,-0.720172944260264,0.14504859726270902,-0.5490254525482418,0.1639837386634279,-0.4035456094340371,-0.39919385464169377,-0.23810126668106088,0.1911422733751245,-0.7753844277441192,0.36619968971227135,0.48653873771945394,-0.06741353764944773,0.8221303874153254,-0.7769185210492858,-0.29036286005403783,0.1776185997670492,-0.6532781434465995,0.8151043952525577,-0.5550531409509029]},{"bias":0.09871120747070687,"weights":[-0.723688875123078,-0.5214912742176815,0.981936770987151,0.13066618277610043,0.1066527670907716,0.5446795677397235,0.883584628171349,1.02906145399889,0.6912153790142822,0.22741281669330282,0.5708291894679266,-0.6744168490509176,-0.2895379692543614,0.3955054704833259,-0.7685254281998056,0.15349201267787904,-0.07152927723162418,0.8610288515582214,0.7048141823848898,0.4508093371262481,0.8540517113943644,-0.0591864569600602,0.9502330954147475,0.6151062032600524,0.8423939378117332,0.176450273983571]},{"bias":0.13355322831322092,"weights":[0.2792747708918906,0.5858515622690691,0.30713364541330224,0.3391374590556651,0.5257252767920966,-0.31685249476675337,-0.9330769594260707,0.8219746013722484,0.31438239676506907,0.8469203847735408,0.6019043929665768,-0.5682228422714722,-0.43339562181858793,0.2801805600621101,-0.07056388934095892,-0.38155157725975813,-0.34274084924960735,0.8385075483909098,0.7844959184481767,0.2827984943284336,0.6470761817335774,-0.13858289236827875,-0.903166759744746,0.02724770037784919,-0.1170526587210181,0.8668649824531289]},{"bias":-0.5021142656012589,"weights":[0.3143241022348783,-0.3242892548354059,0.17887388895465114,0.6683110585111082,-0.3485573213368924,-0.4757522055144779,-0.4741800682450432,-0.726768415547308,0.02643154871370205,-0.9221226694578041,-0.27791714196958345,0.06009070253590651,0.6026717939435144,0.37227845364658235,0.321234649139342,0.8804101724750291,0.6495465973461192,0.2894839778607238,-0.6464263589540584,-0.37391497720031314,0.01385815259061581,0.6334329798144976,-0.09715278350123319,0.26456093170674483,0.8624910418316553,-0.46466721690751545]},{"bias":0.21614469596896327,"weights":[-0.32582837926820735,-0.3941024660209867,-0.37560184811410485,-0.05731318510954674,-0.6554425557502148,-0.35859757421156585,-0.07154944507795352,0.35856985225894944,0.021982208926176243,0.07568716152904179,-0.22999912064647401,-0.9847594318348328,0.8745010532527234,-0.6896003022856086,0.5848358103991419,-0.4749062248825281,-0.2864750457346814,-0.6562833102976449,-0.8043251167292823,0.13431313389802924,0.5244962679181844,-0.23671800345378893,-0.7672519711985878,-0.3439928812347821,-0.870311782600095,0.7090210040687052]},{"bias":0.04477537778864422,"weights":[-0.6350555076247294,0.1332713620757992,0.9713371165921794,-0.46074315615949274,-0.673634468354291,0.3729718701050747,0.590294310073894,0.5109298697726968,0.35018070180183153,0.5930463793020035,-0.9860065532193483,-0.8754088563605946,-0.5300086165580956,-0.9837793357960374,-0.5392510293256867,0.41498835743276274,-0.23522194756795217,-0.8741554643321473,0.09310469532226741,-0.10165384333125774,-0.6228672211209818,-0.9703675559394023,0.6091585955468705,0.5042754543449914,0.9610518018601203,-0.11766046572819316]},{"bias":-0.3262492509987225,"weights":[-0.5137960648084747,-0.22260247528216065,-0.6169144019896118,0.15169955264071266,0.4251832437112174,0.5760012878908275,0.9174950812746331,-0.27651176348009104,0.918101980454719,0.26479516841698064,-0.8591589552993173,0.6693849919365024,-0.005551847872814966,-0.22654715618838092,0.8204951031261187,-0.8802370544423318,0.047928416957741506,0.5222546316224104,0.5019311414079287,0.12894062004125098,-0.9910699151550595,-0.34746510121550617,0.11016126133603381,0.40180059611966684,-0.918165175398458,-0.616789304588872]},{"bias":0.3569967494885198,"weights":[-0.38823289295529645,-0.8105112676199234,-0.5074106841799687,0.41835132567752903,0.0940239237747717,-0.4959300435234845,-0.06534707402564592,-0.32697425547087894,0.7862746026314326,0.3263035043022383,0.5201199814185481,-0.6445294080786262,-0.674902478475136,-0.24248174345704487,0.021608925340507984,0.5483771233430107,0.4265390075767894,-0.1851921816470454,-0.4311220541497522,0.6063882467489368,-0.07589437122207122,0.3406469972901362,-0.38330791286645594,0.4496642916716999,0.8355105763401847,-0.9577376399369207]},{"bias":0.6670785031470687,"weights":[0.6911326447385805,0.6908801642331576,0.565522308795511,0.9494240537776807,-0.8591621330835311,0.6097622426076571,0.5387850824437483,0.11403802843649517,-0.7102128078943004,-0.8454528764604073,0.06693668664451127,0.6477276271516842,0.4087612388273619,0.10388092916028165,0.6046032466467013,0.687111297487106,-0.37156877425298857,0.6568009394438167,0.6705861688329754,-0.40632692552287747,0.8335230539355496,0.5286162409196853,0.6742677693801736,-0.8454058090269587,0.476744981995962,0.4117153245778011]},{"bias":-0.20190624427338383,"weights":[0.9585830529953315,0.26175723759688396,-0.9277949057602842,-0.08907960409563763,0.9111940023106084,-0.4041590868118896,-0.05310677885425822,0.45173834269012714,0.8467853847177794,0.8417457262972436,0.652629982124783,0.0008603627731204184,-0.55633028980743,-0.5123530576993777,-0.3720093019764836,0.12111617690963974,-0.4057785421958389,0.03476359467237427,0.20516819463146893,-0.173368826389079,-0.8488822063784444,-0.486935023130966,-0.11287061452166064,0.35797590310401095,-0.634225464801529,0.6675769740059592]},{"bias":0.947102906437802,"weights":[0.11894849588891201,-0.34710271989201924,0.5532858679444355,-0.5393784551011512,-0.012564028052422823,-0.7063273556873433,-0.02578714831930479,-0.9074312090022433,-0.1874130090407363,0.8148811279972211,-0.7495689570156386,0.6798277678724711,0.3734856470480122,-0.6281706701076062,-0.4985234801007377,-0.5531237147314407,0.618988544794074,0.28999045393851736,0.7877775954511548,-0.44672158036218246,0.41204666981449817,-0.17053982673763649,-0.17654945744614536,-0.07709267613102183,-0.6218668817336033,0.7572984551854922]},{"bias":-0.38663703419499434,"weights":[-0.7654804479706795,0.6014989171613033,0.16476093518387866,-0.4847605548882288,0.8159798873802176,0.051941366704247954,0.8863639809401354,0.012442437691139695,0.5686935316394209,0.710278075928266,0.07113604190527505,-0.7329911708757553,-0.20321855351531481,0.5469599308134309,-0.9818530857153308,0.31953676589881824,0.4717139522605524,-0.25521538046754794,-0.9132302622758601,-0.9846135954030135,0.19359900200605532,0.06190576793695634,0.7986210289053434,-0.393646800943261,-0.009712001920574231,0.47828981419052163]},{"bias":-0.6106374561852915,"weights":[0.4772057583045386,-0.532876126575438,0.28103185961915944,0.6231175312042531,-0.16029356290545077,0.02958022924376439,-0.4511649678240257,0.40753408381986805,0.3801127478252689,-0.11684339039797803,0.9366648218718656,0.5039713551690518,0.4276576813122207,0.7121846316640509,0.6261229458715412,0.5904224679187354,0.7815284447520086,0.057471780600573834,-0.7965745898234645,0.9460126596212235,-0.5536633829566442,-0.38024386647855146,-0.6774815408877849,0.8710051517341767,-0.8128588507128246,0.6236672900781024]},{"bias":0.12512028804758757,"weights":[0.7079701796255329,0.8605388529501906,0.045961768687903075,0.897085962604899,-0.48289219351149076,0.22851442550205264,0.699367986397215,0.04809056334419607,0.8098867286056471,0.13624198397053827,-0.21720710901312953,0.8305364786174624,0.4878142375047008,0.6311719653079434,-0.3051811895222378,0.025079741591099474,-0.052086710520231755,0.32146599290036615,0.20960901358831127,-0.34902627106692086,-0.9001708963545364,0.3692291082770981,-0.12290004147467704,-0.5107603688544312,-0.33163523954149776,-0.2542973275241176]},{"bias":-0.11341665961607685,"weights":[-0.5188934691841279,-0.22463666325547785,-0.7516243467271708,0.3854971728164631,-0.9201176867366654,-0.5497527547666967,-0.3173804985774817,0.24011263172460925,-0.8601029214091269,0.14501597800700802,0.07870184631368106,-0.831951239597509,0.7915123870935045,0.9653822971672141,0.2959614177563457,-0.0014337681189734504,0.7024856433827952,0.1327652972414656,-0.13136852401879984,-0.4163244537320397,0.18214349293213256,-0.33252463103402063,-0.9235548104777849,-0.015760270753705185,0.9837520128035411,-0.602359764767974]},{"bias":0.06457875096586645,"weights":[-0.9331965338876902,-0.5798204053872152,-0.434167464552996,0.8805870958224993,-0.8579516858433291,0.58609455066605,-0.7839610368909595,0.1800851533164263,0.5627866041279993,0.654432120022008,0.9532414937343076,-0.4932162750707604,0.40075018865848916,-0.6319590980809707,0.5478192444499089,-0.6153472594915975,-0.5437444481800922,-0.2802379218779017,0.24154362783298602,-0.20019864502881793,-0.4112927866338459,0.47892451498962746,0.5811464287750739,0.6068825974594977,0.18371503370848558,-0.7319756495979866]},{"bias":-0.19771756002268645,"weights":[0.8771395365944293,-0.45839934973893076,-0.7439605475627575,-0.6984466670486508,-0.7757113658967884,0.7985638205948998,0.4353921855579739,0.6209751665048518,-0.9398479834763888,-0.046744229013028146,0.6326490620444729,0.47368694540536327,0.6453034072169773,-0.41706179899425677,-0.22140916991607737,0.7454411068144903,0.8483277941324049,0.03141147637602929,0.6428540853333844,0.3811718151758183,0.46946333298065723,0.2820180499767988,0.93002213663479,-0.7083501240127842,-0.2404769513991505,0.026062524088454612]},{"bias":0.7344606487383818,"weights":[-0.4797903290886189,-0.8745817772626853,0.7448284852785408,-0.24322062715391704,-0.9298577013752861,0.6742555224200403,0.06652197912468011,-0.7929149822813799,0.38538958134028695,-0.3400267825380001,0.4826260439708084,-0.28108581570720137,0.7662225328414562,0.6121261825556347,-0.6236505623635408,-0.04880964497077353,0.5758174527262463,-0.10305718970082506,-0.2591292573385923,0.40959049253215263,0.209745575816605,0.22425974223520445,-0.007784943465766974,-0.21270764491512403,-0.7276321735689705,-0.5494740004611947]},{"bias":0.21040774161835848,"weights":[0.06675566136408652,0.5116125340045556,0.7781647451829041,-0.5632321483122152,0.12237097890413273,0.548843437340714,-0.7756789473461606,0.9570655000712209,0.5510037353704133,0.47417223830117805,0.8848269928327168,0.27670211256503985,-0.5420285294046692,-0.7509806374234013,-0.6455530087007864,0.009679494340437687,0.14482206779401377,0.02411275268129642,0.04882816198385543,0.6554980595150119,-0.3104264800867797,0.8992917409479817,-0.6137067237962489,-0.6524518273080745,0.7065079080021642,-0.48369884427778237]},{"bias":0.8288649878260236,"weights":[-0.3771038734628994,-0.24863685233916555,0.4898360697426669,0.9097943911742141,-0.9234646595414228,-0.4119288713838038,0.9239558936530605,-0.6793601509864514,-0.4450125101786997,0.6237815071009363,0.7042036489058364,-0.38621643158447777,0.8539122580134013,-0.33915960947830126,0.45116798606077196,0.45764938828339136,0.7072812361393123,-0.8826319478544601,-0.2756653353140436,0.00840203448495218,-0.7287403181988019,-0.5362725451991587,-0.10751488532289118,0.11142868250466592,0.7825631399011803,0.24662470414377521]},{"bias":-0.33129556004482275,"weights":[0.9014944156697714,-0.9417910664119095,0.6586582582846425,-0.7269921801314974,0.21119423440517676,-0.2702702955879945,-0.23436549047103386,0.9004960037313248,0.9361630035781966,-0.9732255289094319,-0.6417794832671602,-0.5068340225954204,0.3308657707521143,0.5067512502943663,-0.8503870332033517,0.2580409286081402,0.17988710260674667,0.52898143464621,0.2643611035694417,-0.6593354126772273,0.6154958510452204,0.23609010366926625,-0.7328834693028592,0.03147254035961154,-0.9542270685915355,-0.23424531538764748]},{"bias":-0.8981039677390147,"weights":[-0.10428176194057064,-0.9403762752437523,0.72778671930386,0.21170461191985765,0.9269122888255867,-0.5448832860862783,0.7139224674909055,-0.7300423501412503,0.6319399770274486,-0.6940328514905473,0.3103784015570178,0.029323554827330147,-0.4013943176140356,-0.20573381616765146,0.914800002613669,-0.3002521818495057,0.610893307160466,-0.6839197110246585,-0.5391558234876861,-0.9717823004831425,0.6139954277975175,-0.9619315807938841,0.9043883008850213,0.011520109742508933,0.7906200120193664,0.15145055662604265]},{"bias":0.8427359766059808,"weights":[-0.7939067320296499,-0.9166675063269145,-0.28222008241401697,-0.4245509235954515,-0.967541912714376,-0.950421110544146,0.7304677969407014,-0.05913567509533615,-0.8942389062181272,0.40865795412913697,-0.7435948938950425,0.9378537541250878,-0.3762161370450844,0.15355241502869796,0.63321743631175,-0.04372755894012707,-0.043620767857328775,-0.49800668017036387,-0.9276347337519008,0.7291902875766906,0.6405776817286011,-0.3625686828663844,0.7144507774801352,0.5784263874291216,0.7398327141747424,0.7532807638127222]},{"bias":0.8402125403313523,"weights":[0.9437351637956577,-0.6322933586792062,-0.8615055650240437,0.7800009811480295,0.3494857363007459,-0.3380775186154226,-0.26108834701057726,-0.40887045971096714,0.3367761060158439,0.16840684776392367,-0.06154689771815735,-0.39497247869488905,-0.34679165006206114,0.7065449655032293,0.3485073334762664,0.3535371764803482,0.12395782185501558,0.8626151085821508,0.6904718703060302,-0.8960500671298429,0.5633443229728579,-0.23768393004035013,-0.20042288206431508,-0.6162455953496867,-0.8996537777348056,-0.3679020217279577]},{"bias":-0.5132487028387115,"weights":[0.5038921118363512,0.7727962463209039,-0.46147890212559756,0.7737532755747148,-0.22095131380747698,0.5489400164813272,-0.7188717145677881,0.5088376235518463,0.9554545915070676,0.2640464694289448,0.9079455771669697,0.7238738801766543,-0.4340472007249967,0.8565464158624944,0.46105773947627243,-0.8561731408662128,-0.01964560789586766,0.9065432498439627,-0.6099522624170686,-0.8516249042769751,-0.5881394803821318,-0.9164087610705435,0.6352085083171771,-0.5579749047945112,0.06699770807055298,-0.38689172633048124]},{"bias":0.6163224659216574,"weights":[-0.7787421096795145,-0.6988632021433959,0.3228309074916167,-0.14753529649300426,-0.5123270331521848,-0.10835114754154967,-0.8814011158698989,0.11604626209086616,0.7930759066174078,-0.8308368190647458,-0.7381216165055293,0.7691535406823594,-0.15787433405889179,-0.2283318100197008,-0.5236701899399441,0.8481246297610548,0.7865512092988698,-0.577221326848702,0.2874205890843172,0.9833967653867608,0.3121334417950394,0.2563669230438759,0.062473088441096815,-0.6718777450831247,-0.057682114767079226,-0.6279993540833049]},{"bias":0.23022500259581466,"weights":[-0.12222907906344598,-0.3781302794179512,-0.40024033917513174,0.17992126384853213,-0.44543630360697495,0.5882207054538687,-0.5593475978524606,-0.30337523225658475,0.9961846641981147,-0.5708204585619854,-0.5839873357638727,0.5721401293296388,0.05035499904542305,0.7504615389016682,0.20084895905935704,-0.946860015297811,-0.7096604967187319,0.16302312410445868,-0.048285398054272184,-0.04834472296065745,0.14530314810237724,0.4915853089716378,0.0980967283808583,-0.04418890474282747,-0.25513504889723365,-0.22728901283420405]},{"bias":0.4811314373608624,"weights":[-0.3956733483762676,0.8352013968613377,-0.49469994522949223,-0.6935799686201888,0.40757833209767286,0.7729544497588413,-0.37465213461215136,0.08236478496523508,-0.7442418111195886,-0.5032831533502689,-0.6196124367876745,-0.8914373190930261,0.844941630787562,-0.8156030971989262,-0.695319483430258,0.060303296512852524,-0.6814480775396858,0.9928179321514614,-0.013611421328502597,-0.5366086588483762,-0.8994073585621915,-0.32638281894949334,-0.46588138345119373,-0.12342532479381563,0.6796293169146019,0.7580458922220406]},{"bias":0.4874777116664406,"weights":[0.8547133363168287,-0.4828575015023111,-0.7947146338033066,-0.05018424632569041,0.7745392263268984,-0.6691373856930121,-0.04565966219515083,0.00636036032652107,0.9464010566941001,-0.09087251059900807,0.01087238987702252,0.9730301250177394,0.6921145186630917,0.9424073465805517,-0.04559578937588672,0.041224202192212685,-0.7986113413668092,-0.8708194923120787,0.4435094942031803,0.844985759576291,0.8389308761574364,0.34750207296487107,0.07454265473746788,0.7608981191148535,0.7803482114195208,0.15563369201700733]},{"bias":-0.3389578367149818,"weights":[-0.3359186446293395,-0.8902748305110467,-0.7533026693686504,0.10575832361009045,-0.3594515595715143,0.734187747642272,0.47397484984211896,-0.37796433736927804,0.7367582170312482,-0.8759901864235573,-0.6290645581474558,-0.15054401562236028,-0.2190990514286008,-0.23319488477191555,-0.13036261651588238,0.6426012868367922,-0.20110922358585762,-0.8705972921431369,0.20297919529083264,-0.19816045662501677,-0.9950450345854966,-0.5458111910380292,0.813888160208518,0.795773526687637,-0.6576996716793113,-0.19496888210194743]},{"bias":-0.2767467888115843,"weights":[-0.682392372117884,-0.3913474854378749,-0.3256175065835051,0.6169589171081284,-0.043657214905315295,-0.009408101205338193,0.03155798561948668,-0.20778104325237162,0.45322573817695555,0.31050144955657544,-0.5475539759154677,-0.156913190560478,-0.4415594107575093,-0.22609611541696562,-0.9339462076097004,-0.1450969190499574,0.882104889944998,0.9401947552375964,0.4894748824696917,-0.20448677289311148,0.4340151433806098,0.8583044640464891,0.5399597088486425,0.7183184050565532,-0.8108444738600578,-0.4861606763113495]},{"bias":0.06065728617679989,"weights":[0.23278093577062828,-0.5489988700912,0.02655441446308156,-0.14756598110463567,0.002748383606210205,0.6983534041701798,0.05894446914395111,0.0664497917038677,-0.31247613641872,0.40554608150074667,-0.44858783910669314,0.9774541518339731,0.7010477817917743,0.9023529359980239,-0.2510158510144895,0.9118328267764986,-0.5091070506145339,-0.08085407146371125,-0.9259737074643956,0.8959631706697452,0.9135541318560422,-0.8329931235929577,0.5105052814741089,0.30600413636431956,-0.5543051625006589,-0.703912373430469]}]},"LRelu",{"Dense":[{"bias":-0.41469169026909686,"weights":[-0.10994744915982538,0.5101132594573351,0.5517064103995385,0.3492611423555564,-0.7611174256081031,0.9329304247796281,-0.319141067792617,-0.28242413683023093,0.49769600159830096,-0.2999222631555495,0.4795610919397097,-0.688515486990708,0.14909705118713273,-0.9520211931429072,0.03756505302545111,0.6226494555121195,-0.6487777028797725,-0.6947465794351585,0.34053974290492556,0.8366230785240404,-0.21508351086072308,0.9809828050739721,-0.9450267786103396,-0.04268487029269316,0.09237817421711585,-0.17652516000414245,0.5831438097531915,0.05337423840372738,0.5408410025865238,0.2268678238854139,0.29874714060451146,0.7675928898196263,0.06572782734023477,-0.5813992093633235,0.8126930447722234,0.7232816573002595,0.2876998765899011,-0.5946328973349426,-0.06434595685280807]},{"bias":-0.7069297879496058,"weights":[-0.20466406286175287,-0.32632158300408054,-0.6737259847443797,0.007496514225329485,0.15938608223422465,-0.7348738187303276,-0.752107076451358,-0.628275776724635,-0.9072034950464432,0.7422420944493818,0.5507661227067803,0.4118224989230083,-0.6325582970876085,0.3368460265516175,0.4920536813337098,0.05862881130606146,-0.8712434562484754,-0.45145613721078326,-0.6401007105864636,-0.6744511538979305,0.8948009855362714,0.9852216090425054,0.0769038093643793,-0.8120842687799023,-0.8269317567709674,-0.9816153228304845,0.3709360010248594,0.317813161267626,-0.7312096554212701,-0.8010488006305068,-0.5415732987367291,0.639676930324531,-0.8401888784322203,0.5283274191912646,-0.8679956903764656,-0.8105630635329075,-0.7831353391648194,-0.6383803612547875,-0.5377297158105141]},{"bias":-0.5658221746119849,"weights":[0.13842660007938656,-0.9236251834239698,0.768207021865124,0.7278433129168203,-0.7148251880604832,0.6944536000646637,-0.9100110859096143,0.733574322799725,-0.35988505561830925,-0.8911565279175444,0.20588251200346872,-0.994084790543494,0.6283257284104329,-0.3800409901950337,0.49284858093932205,0.9943354185224165,-0.1103406472731616,0.5451953152657741,0.13805476087064522,0.7762325450251861,0.7783070677570115,-0.3439933607039733,-0.5680662878077337,-0.030023870281459242,-0.3221172960427275,0.9846536774115141,0.483665606179525,0.30372793388348807,0.559100665713328,0.21939414242077154,0.06838470917295053,-0.4303637474203357,-0.4719281521998763,0.12480659355251349,0.611157699957928,0.31416786967458304,-0.5335190024918623,-0.7413521260595186,-0.7833585909703762]},{"bias":0.4776584808153903,"weights":[0.3028045526423225,-0.5182056732460021,-0.5442717780460465,-0.028918277089136864,0.6689155852429101,0.5073908231446632,0.5781094255177586,-0.07157501077994605,0.8999892191419332,-1.0425563591363332,-0.39249368461265133,0.5418489124445809,-0.275556759511474,0.5909985566379149,0.6413626686388947,0.9674839941294687,0.8622412768791231,0.851556514526901,0.8128808437659463,0.8988697880516618,-0.6692692655506225,-0.7914345231168534,0.45879628871112466,0.22672748049056107,-0.7223353160495545,-0.6150919089157242,0.7051305954805226,-0.7326449571219686,0.8321072125147826,0.00953516659929436,0.7859718229762069,-0.6077236155954578,0.690622944819756,-0.7615371162224901,0.42288419470588423,-0.2775272043928868,0.3059276725587485,0.09391081665846027,-0.6304714210654245]},{"bias":-0.6369581837597762,"weights":[0.6697802703005292,-0.2580632130951582,-0.5723019170961001,0.5731609367103627,-0.8354062092569275,0.41396342176696976,-0.8679008311906915,-0.21784679584762626,-0.1270945151034443,0.31657441500789796,-0.19893951775418023,0.3172954443594709,-0.5941204028699815,-0.4127288208966459,0.7115615473187378,-0.7551632346602208,-0.5248633916970582,0.8315773316084123,0.007502666394182224,-0.5036602888082261,0.28106396569581615,-0.8964941482177086,0.7831738512200802,0.34256501474694895,-0.8608396204626857,-0.3008201560246342,-0.8674067021393386,-0.17167387022086453,-0.9509783923684605,0.616571516992694,-0.07986495358502979,-0.28426319678012624,-0.9532891252665038,-0.14249668465227236,0.2836763421957398,0.8259397852543561,0.546356368859652,0.7877514047599885,-0.29783406761303544]},{"bias":-0.1630593329450594,"weights":[-0.7401805779123132,-0.49945724483978926,-0.06005045012972393,0.13212614153173702,-0.5155581840614292,-0.2075847193354969,0.6986200178590695,0.049391084199211725,-0.8897937391334735,0.17206402296432846,-0.8818670613231173,-0.5331578909131349,-0.28620207427552274,-0.38419908874298647,-0.3796406087587715,0.016999901724832456,-0.6686629351627771,0.6103176877812765,-0.35670560160380943,-0.8671698205359959,0.8985381811991292,0.4235134855554755,0.9882335119638298,0.3319095789187855,-0.6696319475289724,-0.1819472705427573,-0.17876738713197796,-0.34491273702647135,0.014613776723208146,-0.3395250502479294,-0.8219989677052124,0.7473129301376107,-0.2670480046420393,0.2464032010083861,-0.9587021587008849,-0.3620956156983972,0.11844595999671179,0.8345205508490409,0.5925225335267017]},{"bias":0.8288353914931273,"weights":[-0.8338494334841239,0.14069818476607776,-0.5243048701609172,-0.2258765970443496,0.44466042610828577,-0.9591820388192946,0.6059842175735309,-0.48297143286105976,-0.6254280567924032,-0.14533696295920062,0.3753038817424953,0.36345869176981177,-0.8264612408530182,0.4203722578219188,-0.43383029874337137,-0.6926777172606624,-0.506063370784837,-0.2703952257798604,0.42871646133905755,0.22370215492668047,0.5844471788553012,0.5950145238884371,0.43284510587206126,0.7675179463269295,-0.6987801856551692,-0.8028195783784969,0.015386673956436414,0.2917145577501822,-0.021044341642621377,0.0874859253324708,-0.9505949606165678,-0.9745806970469469,-0.23910440525301224,-0.019265649729679955,-0.9680838446729296,-0.004518699222483237,-0.5347139422891947,0.8756106274108992,-0.41935777340894853]},{"bias":0.026813476384336697,"weights":[-0.03326147812365691,0.608281503470687,0.3314442588668716,-0.49970122506885345,0.041821875074267524,-0.09378431675087652,-0.3180843969001427,0.11775429741270677,-0.3664893927409582,0.9364827682653031,0.6482317153392693,0.30426663805159065,-0.2069361985912113,0.9556464014885463,-0.22016844844510877,0.7618041629074713,0.9174246913126327,0.6903269324757487,-0.7734801818208669,-0.7503178290976095,-0.23527289328803766,0.06389502696485556,0.35561130703099775,0.3001739230487298,-0.7864271141458096,-0.5172671105758396,0.43191540961447084,0.755552322547109,0.5231152187640868,-0.20880219266798006,-0.5609179198481796,0.2598380706801291,0.21041228448837848,0.6695281270938958,-0.49571570799963666,-0.2904704407334978,0.9264850674359842,-0.8280744276313174,0.3762125292670577]},{"bias":-0.9784758248738102,"weights":[-0.7110790981248121,-0.7182787660322083,-0.4185718141002877,-0.5771668116481078,0.44897085995869085,-0.3279227469554646,0.24740767895644206,0.5122100737067342,0.6059933743187844,0.7914762251514469,-0.8455936697765366,0.8410101533917792,-0.3061099407904443,0.7692764665639703,-0.5664857253893051,-0.8459920590145338,0.45347203414539644,0.7434970235749127,0.42723922860765784,0.6352502948632169,-0.12743272270657452,0.3926669152025463,-1.0156192609034924,-0.11594170647162824,-0.6786421528609287,-0.40538689864699096,-0.1838735292770934,0.006147106838908712,0.027732261421036568,0.6392943827793315,-0.6262440858129565,0.10404746085240787,-0.8363891695739122,0.19598592317503075,-0.07359623641495396,0.5211625316090027,-0.6206924780437394,0.9240748597108668,0.30678736021792946]},{"bias":0.772415317124652,"weights":[-0.4050132209571256,0.9362582609855671,-0.07382697019836679,0.9128466870265599,0.16399991603968075,0.14104823869792,-0.010845236771478155,0.9287721621375847,-0.7344560764544035,-0.9296569327940967,0.19731520214464432,0.7511508316218707,0.5593672174155925,0.14941192111834084,0.6708085781900166,0.7580890360889895,-0.360902555198784,0.41003672647491396,0.585526075975437,-0.6151308844354363,0.28869047490193117,0.465453475484324,0.07320073757194157,-0.8322366049526602,-0.9619161175322766,-0.1667702388515174,0.3387657675719459,0.30758730522511496,-0.5283643202620182,0.38690670265646143,-0.9408541034007034,0.37640849177336116,-0.7251747391771107,-0.9228111294753706,-0.6659881318005129,-0.04469647394835505,0.6189408226512564,0.8501511849882478,-0.2992276906733046]},{"bias":-0.7605066628233847,"weights":[0.34839361838624316,-0.9946329385448418,-0.3711636899556843,0.7725092884064634,0.6377103599395889,-0.3094925154198783,0.02610944822005922,-0.5752810402251295,-0.2732976510436774,-0.8789145036759013,-0.4236233782358779,0.09863675180604785,-0.26582729638874564,0.7050896312626943,0.00445017771956633,0.9904540369450011,-0.3720279539737972,-0.747723630333602,0.10041113689799398,-0.7581541469877632,0.6851099095227658,-0.9552571267643172,-0.9496794827058556,0.6118902930584228,0.9921095609297084,0.15935323134222268,0.13217142794869308,-0.2788966101414676,-0.2529703634026951,-0.22145385126670014,0.1609494334102351,0.1647650512838047,0.4604586973532694,0.6566677164935366,0.08930162430971984,-0.19508628695777674,-0.6161266514197757,0.3322214787117052,0.36872736487776686]},{"bias":-0.2527815086535241,"weights":[-0.6459034883591999,0.3881724403006574,0.5459169144739493,0.7518174103669857,0.19691438113398643,0.10315079056820774,-0.6350874568810883,0.09165749659359002,-0.5165103425601095,0.17826499492188705,-0.5783589494686155,0.9185223939434839,0.0005661365405176062,0.8465824861593765,0.24220072248908014,0.261271429604156,0.7075773785354769,0.06634517860236398,0.3623347174239104,-0.7514604964438771,-0.022444519555423783,0.1779072828802116,0.6919221212747446,-0.4894038160207536,0.1288767026171744,-0.9228466998121465,0.689988929010558,-0.7892106938956093,-0.43133052627338947,-0.9816683253472478,-0.6740196821502812,-0.3001633763598864,0.6846948102977427,0.8901677560928795,0.9560481043355823,-0.5459891411480201,0.1447657761470265,-0.11969813580312678,-0.2646476237672048]},{"bias":-0.8182303757790643,"weights":[0.8223592278065313,0.215495851841933,-0.09567013705832947,0.8634352806304384,-0.9444550396584287,0.31643502971277054,0.6694255666352786,-0.2453040769095137,-0.975435336853905,-0.7885301842891042,-0.606157409804449,0.1416263664634471,-0.36591193783307363,-0.5042335727445122,-0.9475958080129705,0.23299661031059485,-0.37037911235552134,-0.7733472188174942,-0.5721951420491982,-0.839594389618486,0.07374931024783934,0.03502208604101531,0.9652461326474705,0.22371119448982352,-0.6062963433441614,0.4185930442155297,-0.761450082814628,0.8730992080785838,-0.1642739651512354,-0.7444741947619936,0.5886916157434486,0.9232074717168373,-0.5176496838357191,0.7808993280450254,0.8917963879078139,0.06088617193988303,-0.24341193512004847,0.04927221859412656,0.2908177737976048]},{"bias":-0.7030367580057354,"weights":[0.7253411264039368,-0.3493802759778654,-0.09835949607870759,-0.4342046307838862,-0.8678857829001156,0.16896208993899559,-0.5536380501815626,-0.5875177661234697,-0.5403035367643991,0.823030512404714,-0.7703698843727705,0.07783308096028897,-0.17785956552751392,0.8699297264777173,-0.21460640286937047,0.42700068826332543,-0.3803458399534882,-0.18180471619176816,0.8170431258123159,-0.9953232079353427,0.8992206677350002,0.5278010034650619,-0.6481797141376622,-0.4720936655163612,-0.9623980324088699,-0.7792430042105173,-0.2564985925768785,-0.5506013346300506,0.8828839067857771,0.8487499067222133,0.7847019756940907,0.9409817377378312,0.061770173619282186,0.2883171240958375,0.6059190404752814,-0.9306688949871316,0.9629657192734149,0.4508353998887954,-0.08858177064783149]},{"bias":0.08657044888921557,"weights":[-0.26445180314671995,-0.8114851754918092,-0.4395456514493527,0.6707576948249786,-0.33584301735160016,-0.5074138533077464,-0.5438279520692856,0.34232375562920037,-0.8286996700074224,0.19507671665551024,-0.7662661783627532,-0.3372581546542442,0.31917467669044114,0.41542290825301487,0.0873666129154135,0.8128790275139446,0.5925427369112874,-0.4130290396359593,-0.687211115067847,0.7189876650541709,-0.3319168725339326,-0.041385332872214554,0.5652478665649643,0.9882553603529907,-0.29317135570051933,0.3586000087934785,0.20876273580295215,-0.6367222085818954,0.138800018042082,0.07029940235424745,-0.2994280063501064,-0.44712365727297615,-0.7257439665379879,0.6982743253654667,-0.3929800665445139,-0.5295235492465076,-0.30068321596685266,0.05164085958697837,-0.2207808230011322]},{"bias":-0.06164279339895616,"weights":[-0.4232607363041451,-0.588938101156102,0.6520302950430709,-0.7656535479936153,0.5738724764238247,-0.9699248901026154,-0.671371562624888,-0.8003826892216247,-0.09039983953226972,0.13287044277007637,0.8765259907786265,0.8742050750908014,0.09470714329911352,0.6971890461705721,0.19863155429831783,0.12874578847752854,-0.9851463129454395,0.21835242807740243,0.22432838399822158,0.9574009611271814,0.7525981283754819,-0.36285555102907935,0.6344140344672057,0.8872907497202036,-0.8120844843540482,0.44249260688520736,-0.7990336629376549,-0.9553922855864039,-0.07323030826087873,-0.3883453517453433,-0.4819731001005867,-0.9394764064233408,0.3801370684078993,-0.5595319277461949,0.8649413873761541,0.6895935355409692,0.7399954477169718,-0.6083183385759044,0.23051531079156262]},{"bias":-0.5491753183274884,"weights":[0.558461020417261,0.7558256742754113,0.2956769943796875,0.6192680968512059,0.5841630406608881,-0.5236846853378628,-0.6068979357650937,-0.38779614611187785,-0.8361588297158002,-0.538449123238187,-0.04337462476763446,-0.9549229115801073,-0.4632471908405575,-0.32867430883909227,-0.5516934212401947,0.04794295916521272,0.5748356266029168,-0.6406012950558719,0.0682288335188052,0.6083593618867054,-0.8669692300886427,0.6969154941335785,-0.6172999612082677,0.0807886551738817,0.46832167943902925,-0.24555809989221686,0.7621800630741559,-0.2115642825532236,-0.9694059101765291,-0.034036464281159515,0.7590240097021106,-0.3462390276581116,-0.4987468349015108,0.49780140645868837,0.7227987114585522,-0.5988404618646539,0.4375789057590562,0.6755394932733417,-0.15960989001817372]},{"bias":0.24829426987082215,"weights":[0.9333187441923041,0.8765749639011118,-0.9672267318649775,0.6943393028896298,-0.7833939904362883,-0.08572979111208454,-0.5829145246656884,-0.11879256832384376,-0.8494014024809663,-0.21045074425240912,-0.5480222592838347,0.6238673904066578,-0.26076833721244796,0.8845540371231781,0.006509971243550828,0.005337437217158566,-0.6442887248646249,0.8214029547446496,-0.8549329494121877,-0.9893533988829764,-0.4481935265621092,0.6146769137873278,0.8520344749927768,-0.22434078208943098,0.7470583041251804,0.42969866038307597,0.3129189155644229,-0.853813097052255,0.14745263771472436,0.44619381778448336,-0.0797001836309944,0.932061505000767,0.9348770501554522,0.22186436817494506,-0.760979450200225,-0.2644609231060853,-0.8602653614822918,0.4207456647746618,-0.05874607385218169]},{"bias":0.728109514610961,"weights":[-0.011374711113903415,0.38303045132185,0.7806945062276969,0.06312710767621559,-0.4000110719881787,-0.1565957934328719,0.03694738875786952,-0.9518107958603643,0.019542559445548262,0.16461666011284087,-0.1290242378725613,-0.4917869714336442,-0.7255931119320709,-0.40521088868914046,0.3694089431935904,-0.22550672383276696,-0.6062758579525003,0.9411399170218993,0.25780931791401596,0.910761026537734,-0.0908547279400607,0.863730693069694,-0.26400140771743263,-0.2835057180986836,0.8985390068908283,0.8587434075600474,0.8484239568476033,0.028793665050448326,-0.5544588689731985,-0.23037276958301114,-0.40701607604815954,0.8639286847896622,0.17183435607249306,-0.6510097668906499,-0.5100915091505374,-0.7881821293435398,-0.8369625697397601,0.8688642680006826,-0.5051986827484043]},{"bias":-0.5572387701010462,"weights":[-0.8513283911879612,0.09680925666527994,0.39634049490355566,-0.3275141586132895,0.12715232964582324,-0.9314465757292455,0.8133346698825634,-0.7082139393140489,0.4313796135533844,1.005305813134419,-0.49711398774969084,-0.02438949550485805,0.23630272727303445,0.460208277386739,0.6378468551941582,-0.6663301892972365,0.011762755966210382,0.2639602307441536,-0.4419439383495297,0.509599178264524,0.23172996670732682,0.36365615245173494,0.8225202457188099,0.8686225494228151,-0.28140962682083975,-0.32192530890995863,0.2588526836170299,0.6372407330736922,0.718507538554415,0.369774076128744,-0.3999695139132737,-0.5868452715406164,0.629550924574863,-0.9961001147345643,0.5295589966205061,-0.023257136049724146,0.1757242952989798,0.471032387088274,0.6742611033986091]},{"bias":-0.9708205045974837,"weights":[-0.8466233488532996,-0.05024614113942329,0.33528936858802133,-0.6821732250838122,-0.07983786116170213,-0.6933999208364843,0.06413611546784831,-0.48692507586113487,0.6075654844627553,0.28108770332976674,0.9823479934374671,-0.13049595714843132,0.6624120653453671,-0.8417830143549399,-0.24753794876712162,0.6051143899502232,-0.8812031734460161,-0.1821608945860618,0.2865450558226138,0.945578232778097,-0.6926542802446228,-0.9135278157067338,0.5067939957217906,-0.6644733270180249,-0.7286252314648587,0.6641462526240104,-0.15220927848560692,0.4568949089866024,-0.5800476888181577,0.24455727551254042,0.3122422546999026,-0.2527608080862155,-0.8273163878750529,-0.19735150586251204,0.8926704169600957,0.9008140316154268,-0.08422047618224882,-0.34493522289598566,0.9896282534102679]},{"bias":-0.7860539896559036,"weights":[-0.7246613781810031,0.7106029552922467,-0.22907140823509092,0.06026424644771464,-0.933273134673459,-0.8890348530706462,-0.6846931751267661,-0.551070191649572,0.3463583983361805,-0.9538144834624076,0.4988327961243743,-0.29969910999570853,0.87357387728346,0.874595509187289,-0.14239941450170276,-0.3758484617125142,-0.9630275467936604,-0.7384142736999604,0.4198235354065092,0.11281047364415628,-0.6120447867692399,0.5449145476202233,0.7822871046002287,-0.9341482262656704,1.006554816880059,-0.7134651023692806,-0.5792208812768327,0.4547096001627838,-0.21821195098050708,0.5931675753651413,-0.28178273547385374,0.15673657034084273,0.06764009412365145,0.7090413569277934,0.7138748849315112,0.0412037811802081,0.777482040353357,-0.759517696793261,0.28452961742428284]},{"bias":0.06457779511037517,"weights":[0.3366668043141272,-0.5078516629985729,0.08290328484511071,0.43960144939898815,-0.7097824414172147,0.9316241864502952,0.25108752617132096,-0.23663238536766096,0.44214304080201716,0.8397146465932364,0.9961715081688906,0.5296961914122582,0.2024906768181337,0.39336101869474716,0.6529960024996142,0.16617647241320774,-0.5910371770508589,0.7375560690629993,-0.7891401516243481,0.40729401029594103,-0.887334817068119,0.5807812293052651,-0.42247262833071975,0.7586949874904148,0.3010779524559739,0.5445224464604316,-0.8798297040523579,0.5108644119860801,-0.38383706246695964,-0.3936742005455466,0.7798275211233914,-0.15513080174004865,-0.6797266317570737,-0.688078493376281,-0.7901464494399717,0.3790018773925869,0.09373928474373669,-0.454678311452178,-0.265712270543356]},{"bias":0.7958346842210164,"weights":[-0.6717947545842922,-0.9156621179003798,0.5697363323527299,-0.5128855600682617,0.888130851199619,-0.3200144373538961,-0.9970121312825393,-0.3631279112821865,-0.06261396964965335,0.4920635991563592,0.11354530707639941,-0.37083020539864675,0.09134183167607178,0.6822654574597433,0.1464270564387791,-0.1701007454019357,0.19575925038876485,-0.4807999379138708,-0.37224887999050305,-0.30699774076551245,0.4691718337009869,0.9390372369004828,-0.4696869040080368,0.6047771543910578,-0.7861330089754762,0.687117275404406,0.7860996966652744,-0.816057547267148,-0.1582241978126349,0.6186352079763529,-0.43261276857473896,-0.2924328828602423,-0.5719752359960935,-0.8619612528228512,0.014516538873246873,-0.578242920730516,0.5708301591874234,0.5797132226496005,-0.5169157701863322]},{"bias":-0.8109072556069189,"weights":[0.11253829932389878,-0.20770645186725728,-0.45327136424404635,-0.6725520063949414,0.4011295373248857,0.0889411424217215,-0.1742919587150658,0.31842285520802455,0.41437258933903737,-0.971868773361572,0.5000548172675097,-0.576803286011003,-0.6364509757343215,-0.8363932620944148,-0.3038420288767882,-0.5308769311405981,-0.7210976286966421,0.9211085026253395,-0.9660814133069249,-0.4611470085559629,0.565642468202628,0.041684738773768416,-0.5395868749947398,0.937580538274271,0.6803662467881118,0.28744450922528664,0.18031370744561143,0.4518322243977644,-0.7361898327046124,0.9649558624817403,0.219455629843342,-0.7118227192089408,-0.9346875917912713,-0.8854777613303361,0.09971131067233642,-0.19640628684778394,-0.28169001341125316,-0.7041029686381878,-0.7910666810449443]},{"bias":0.47531806345904476,"weights":[0.4392282162119926,-0.3810109857426315,-0.1468063962453376,-0.4603832418497127,-0.12199049133292238,0.44317528207416784,0.514020212614258,-0.5739136496090071,-0.5878324470422749,-0.39221345326548046,-0.5272069261166916,0.826820548880986,-0.018921806188266378,0.4141995547274923,1.0062404696192044,0.791731935427422,0.10933658275121173,0.6928158569693252,0.33213225917229716,0.015858825259960727,-0.5152195050250576,0.5798386844652283,-0.0065096811302631195,-0.4001750763542224,0.1850693372429119,0.883702426724887,0.8657578682494536,0.19719434751165085,0.9244755999815186,0.8295919996668025,-0.0913279156740018,-0.19351638311336597,-0.31036839825987067,0.6450352306769574,0.48284017267797086,0.19277797639080402,0.6419749317107991,-0.5481625679780813,0.4958613345641694]},{"bias":0.37381235527263806,"weights":[0.5026099570325467,-0.18275845030771146,0.05783116338007648,-0.5054129565203769,0.3857430259430315,-0.8837082381047588,-0.43134568694298697,0.5078067139026045,0.018523622350560796,-0.8873590298770028,0.8580029102668675,0.06334799371391271,-0.5627902985016581,-0.04885894752452235,-0.7149713122322533,0.7834595789985467,-0.015792108289905557,-0.9238717087583115,0.21932945354169509,-0.5346570810408686,0.30390163461579445,-0.6978272618115912,-0.7053449993731412,0.383709601410103,0.8528331224179623,-0.27545685986810436,-0.9110610410107546,-0.1245045646690336,0.4429332941993658,0.729645013299913,-0.4643222883030433,0.32897930274383896,0.6192387927590142,0.25105923356657894,-0.4930912899290633,0.5618404883458873,-0.1174033374074298,-0.8339584095840581,0.8435005489199534]},{"bias":0.5428945802980539,"weights":[-0.47083911762772873,0.882414801351107,-0.6638677616038605,-0.36943100252578215,-0.008113539027215705,0.10827074064946435,-0.0625381548295711,0.56433591599394,0.2633310451188446,-0.7202108298660056,0.5079534629677381,-0.7672674532256805,0.5976973588844149,-0.043902954159868134,0.019501978818253236,-0.45612017168378916,0.6295657411071492,-0.9330423578096223,0.20191802864131558,-0.5511300473088581,-0.3942963051461032,-0.6963324770938689,0.2632426292873645,0.2413675557522802,-0.258418839405106,-0.010587577624891377,-0.041999501350775015,-0.5874543441096645,-0.7466435368284006,-0.110813810230275,0.07077552035404379,-0.8758982036704374,-0.9248918183745162,-0.275263395395128,-0.9584572867433444,0.9245782216786562,-0.2727332555961382,-0.17597343010514674,-0.8339088542168032]},{"bias":0.8552182211791461,"weights":[-0.33750869589840804,-0.8357301511308077,-0.009023887630010495,-0.08200042689730863,0.525860074456784,-0.47528319319462947,0.03223864446277234,0.44771958473574525,0.400417452516185,-0.6884028817725257,-0.6243506601948601,0.3377433716498848,-0.1455477105351283,0.5099408155345974,-0.32696544893261204,-0.43863886960829973,0.4865056999391405,-0.5139323948887963,-0.5744462873289448,-0.2812061251961642,-0.065299987858694,-0.9925557307853803,-0.5697770222362435,0.6923968345154861,-0.3624849455252102,0.012942827550704035,0.5778482806050474,0.1244367473518354,-0.06483640676290262,-0.2667012928911655,-0.6292926455999291,-0.43296163307283075,-0.7863901445809192,0.6980071010091914,-0.5133309453903239,-1.0048577083635173,0.5726281638360531,0.508700808749328,0.8493547286732045]},{"bias":-0.37328573895586525,"weights":[-0.05415316500230887,0.15618169058113757,-0.9310008359178007,-0.8207963532671562,-0.39368500670594125,-0.4852805917676798,0.3007688180480281,-0.8725608288827905,-0.535058934612429,-0.032653215161712726,0.1557504408823364,0.14680369962818637,-0.4839462888982129,-0.6052754412163904,-0.15237154971959158,-0.4929095651947438,-0.5279061751463672,-0.5652865329030511,-0.09644370165007071,-0.9480904173915611,0.1956564123786703,0.916800676545366,-0.013494700746092247,0.9414469044040604,-0.17776872440901406,0.09320607328696028,-0.6472069843087765,0.3621615067515713,-0.868039366406622,-0.9199254457205704,-0.6554521159924607,0.3876770272313481,0.8171540429265061,-0.7950886114282848,-0.4450223624884111,-0.5582299109060084,-0.2830407146516001,0.9041318632729285,-0.8254774436324527]},{"bias":0.055070000179832074,"weights":[0.9312096407530022,-0.6836621908855345,0.4896572985103685,-0.34834627983862315,0.37032154501205583,0.22138722141766856,-0.5813347203438871,-0.6042990986177583,-0.5069524679833103,-0.1684231645094912,0.32553861646050025,-0.05548621914790663,-0.8659495358124724,0.20701203449214114,-0.9992336459558914,-0.30372204957203297,-0.6087736941054762,-0.4101907211271816,0.12689439905488625,0.03309157571081621,-0.6248395122337355,0.7239255321978864,0.6550163900951235,0.48800859582125933,0.36329118810234284,-0.8860253825993547,-0.5000555885711141,-0.22555977660727602,-0.8947892191770783,-0.5310762605368039,-0.3167288270389117,0.8590576356481281,0.6229145955221431,-0.07448999712485503,0.12102794585272812,0.30009678178976884,0.8527303153934802,-0.46893980150757575,0.7316384744284388]},{"bias":-0.9454878080872109,"weights":[0.4274720829242433,-0.24930184211705592,0.6109490552145719,0.9387156797895576,-0.2969408964422103,0.25207634198259277,0.9357846162595778,0.5579963007177763,0.5880038156637166,0.04118323170622286,-0.7433504605605895,-0.8556198546024454,-0.8822179172590576,-0.8012767639897227,-0.30919235774575865,-0.6946606932309808,-0.2426246660891455,-0.03749825137743787,0.1279155297712108,0.5688914447423585,0.3012702120424864,0.01641974063437835,0.9969666116786864,-0.1964637538164327,0.3075017054188721,-0.26436290266257195,0.16607579882297444,0.3172812582295864,0.8948460111741472,0.28132087025823993,0.3717590163797275,-0.7953945608279225,-0.12171525473569503,0.04085151931600821,-0.05752353072919366,-0.23259514667613929,0.318296247154798,-0.053740049202110715,-0.17301965288262044]},{"bias":-0.8061522422108045,"weights":[-0.586384934578613,-0.8435858064472891,-0.7017765892542009,0.6565550233679252,-0.41226283022459964,0.4849162333211224,0.7717933610606142,0.6877145358142714,-0.3865843640816996,-0.5699784520442746,-0.17709868002582427,-0.7186458656178615,-0.4038769509536954,0.7897084865556488,-0.3670586567984203,-0.19424540795237288,0.22900333581616286,0.8191461580547938,-0.5676913087222167,-0.5476384227093216,-0.16536589186905323,-0.8743877921760914,-0.4977265150010783,-0.2598245404385599,0.8840419255045346,0.5066280408025318,0.1384521931538643,0.5810191990292906,0.38548677766269385,0.7907958260961798,0.695362601625318,-0.4932742350858365,0.51431792249553,-0.1902636931308629,0.9131298314692344,-0.5661812818829293,0.23223109690167618,-0.18739115532709563,-0.3280629387548132]},{"bias":-0.7446433961760652,"weights":[0.006480748432456101,-0.29641203157720497,-0.4206866637536723,-0.6019822968698177,0.8065727496598236,-0.11703106083432673,0.0047082511931621105,-0.21813162096756236,0.6008408342970536,0.8540665816531898,-0.08822077556940493,0.8078898866756877,0.34664559989257865,-0.8772110225229955,0.8090650483048145,0.2776193347546947,0.34599539058002066,0.9255986444504471,0.43790726476799374,-0.10231576480011337,-0.7631075923942308,0.1276384643060349,0.7526937389405534,0.9980252241797979,-0.07990518091682905,-0.14299406205194082,0.9835728472769958,0.1380057883818192,-0.5300194112769818,0.801395874701954,-0.08337889166437827,0.16330725141997926,0.3881766270419747,-0.5226286217081434,-0.5681963209540503,-0.5770970561726049,0.35204369211184744,-0.8715764105913051,0.897589180217823]},{"bias":-0.806304830900384,"weights":[0.5673383443768218,0.7139603420605432,-0.3071346295814706,0.7317809136603892,0.930464979306118,-0.1338090259030054,0.2355071285946441,-0.5023316836252553,0.15530753589748672,0.6249595173990917,-0.5867623887310996,0.8033633369374086,-0.051720466635126874,-0.11334855360148106,0.04819226405319634,0.1464070728072773,0.17499590856620115,0.2726812545243667,-0.4300155535831617,-0.7961137999241903,-0.3131785671919654,0.8558492044039813,0.7621351009553345,0.8090047938458217,-0.9080394549344801,0.13399769815885873,-0.21965604800079497,0.6749661007866365,0.27416389482331094,-0.48352705395069884,0.07331279540745995,-0.7693768890001049,0.14702446077171547,-0.4087537560779884,0.44012726106700134,-0.5855020709123768,0.059194303874071486,0.6340290569483181,0.6094654781413308]},{"bias":-0.6384464318149302,"weights":[-0.37466635113452645,-0.18105368469404676,0.25676575249177636,0.5913879479309132,0.8841812801538613,-0.6286935974827135,-0.004888671493932557,0.9570038008703331,0.10847002315353092,-0.672453872015124,-0.6297570349231,-0.08064509570796284,-0.6419097832586197,-0.21162902587945165,-0.4638267836181937,0.36521750012749965,-0.49067160066380144,0.523020318805588,0.8827104811993933,-0.5799432748217993,-0.7596056946709784,0.45675124691443725,-0.358114454945739,0.6132027733416947,0.013931866451774374,0.38306251663636703,0.09549383559024285,0.8203657957609908,-0.3701549126796198,-0.47477583471707663,-0.26995172995479705,-0.8563467516856671,0.17305004635239793,-0.5685700633284753,0.437753096601879,0.6385706522741696,0.7405046065803528,-0.9799201289626723,0.42567773546606247]},{"bias":0.9046399529752789,"weights":[0.05417672809679052,-0.31143420878888606,-0.7706024826575062,0.6057865638038129,-0.22894664600492218,-0.4800568614676531,0.06836414815116665,0.959402978587081,0.4976000153359398,0.5507683736715399,-0.7482775366518094,-0.03534087205100063,-0.7696016902297459,0.6766351223660415,-0.09641422020348948,-0.16286889465358795,-0.16250057279115537,-0.4205428055993947,0.6345169843998322,-0.8917964962964318,-0.9164383149596363,0.5628099118895923,-0.0010951857155699761,-0.9805834858007253,0.6074524721147269,-0.6732617871026383,0.4349591463370259,0.4373827425160412,0.565358490021444,0.6976308195473678,0.5616799414014,-0.19550420221767176,-0.3267871606906656,0.4717115908820029,-0.1873075362333604,-0.01430739023954188,-0.6999247363884615,-0.8589629002658362,-0.22944581412901627]},{"bias":0.807366138499055,"weights":[-0.8309342951807389,0.47261173468381046,-0.06455802051190647,0.09627580351083717,0.03324324656724099,-0.8803370731020387,0.9004970893285319,-0.6193132152922824,-0.12809086747683518,-0.9179116575722782,0.8034348978716573,-0.4498305113684205,-0.12983819876192731,0.5287972615268054,-0.34591542497372235,-0.9572275386778675,0.8474796148911398,-0.2537474853712278,-0.21971037720351153,0.1929380054577422,0.41679155358984693,-0.4230157733758095,1.003333163377061,-0.1723739902169797,-0.7657766059351814,0.4962613560667947,0.9168809091329102,-0.5211496414029163,0.3813527244373029,-0.7365426253936717,-0.26709474614068524,-0.9001809925453391,0.042103030167358786,-0.3313002824060014,0.6999479089956914,-0.08799834633810029,-0.9713425205890145,0.3419043227102602,0.4787251789100715]},{"bias":0.119544141513033,"weights":[-0.9849912568679893,0.9182343870416458,0.6437213617511256,-0.7308217496301085,-0.693296754967336,0.42915713672647976,0.6488429695291753,-0.059353236833127494,0.2283615394860292,0.5297525269383299,0.3310358961174702,-0.06349629156662479,0.05270465728877285,-0.5267088268912521,0.8829423639875743,0.8713313623191323,0.6454614585300933,0.2503166891288778,0.5356090284326769,0.3776369352466028,0.9736962432797865,0.45872775003405625,-0.297851573403371,0.6929524535986431,-0.6937778625109454,-0.6869935516265784,-0.8078879562804939,0.6607207162536279,0.8211035569368794,0.36483797594573003,-0.31652665614836406,0.2750255333659733,-0.8426464171351438,0.7662314811187896,-0.8633608360300471,-0.3358798948417205,0.3435251506269888,0.795818756212218,-0.0354616860480128]}]},"LRelu",{"Dense":[{"bias":0.4114632751434675,"weights":[0.5382937682927196,0.5012754843216146,-0.31100771852923476,-0.6624344251590144,-0.5658627367809145,-0.5922676841498845,-0.4805093510035271,0.40746537398212795,-0.19821745279995603,-0.5463496858889995,-0.7891279788267535,-0.4438126050118156,0.7047876876063325,0.5597466165140942,0.520841513900592,0.6703012608516958,-0.4612572475802084,-0.10907225964467537,-0.17838961444549642,0.3679948107941862,-0.8898464594582469,-0.6210459454256261,-0.5649338713340228,0.4412065351841738,0.8297737033259421,0.7236771895369105,0.7200050643910637,-0.057219432876234204,0.5425533243376107,-0.538215827688168,0.7722575796460793,0.07664457582747886,-0.033093288476791126,0.0013934225193168897,-0.4812121447295565,0.5388244152814411,-0.4614450727263285,0.2197822717984347,-0.257124711449129]}]}]}